{"learner":{"attributes":{"scikit_learn":"{\"_estimator_type\": \"regressor\"}"},"feature_names":[],"feature_types":[],"gradient_booster":{"model":{"gbtree_model_param":{"num_parallel_tree":"1","num_trees":"100"},"iteration_indptr":[0,1,2,3,4,5,6,7,8,9,10,11,12,13,14,15,16,17,18,19,20,21,22,23,24,25,26,27,28,29,30,31,32,33,34,35,36,37,38,39,40,41,42,43,44,45,46,47,48,49,50,51,52,53,54,55,56,57,58,59,60,61,62,63,64,65,66,67,68,69,70,71,72,73,74,75,76,77,78,79,80,81,82,83,84,85,86,87,88,89,90,91,92,93,94,95,96,97,98,99,100],"tree_info":[0,0,0,0,0,0,0,0,0,0,0,0,0,0,0,0,0,0,0,0,0,0,0,0,0,0,0,0,0,0,0,0,0,0,0,0,0,0,0,0,0,0,0,0,0,0,0,0,0,0,0,0,0,0,0,0,0,0,0,0,0,0,0,0,0,0,0,0,0,0,0,0,0,0,0,0,0,0,0,0,0,0,0,0,0,0,0,0,0,0,0,0,0,0,0,0,0,0,0,0],"trees":[{"base_weights":[7.361121E-2,-7.014695E-1,5.1840824E-1,-7.971497E-1,-2.2148296E-1,6.980826E-2,1.0981282E0,-4.5031827E-2,-3.3835117E-2,3.6447123E-3,-3.3608027E-2,-1.10067725E-2,3.8090028E-2,1.7245008E-2,7.620749E-2],"categories":[],"categories_nodes":[],"categories_segments":[],"categories_sizes":[],"default_left":[0,0,0,0,0,0,0,0,0,0,0,0,0,0,0],"id":0,"left_children":[1,3,5,7,9,11,13,-1,-1,-1,-1,-1,-1,-1,-1],"loss_changes":[1.05858246E2,4.9670715E0,5.06355E1,5.497513E-1,2.7023807E0,2.2438606E1,2.6750084E1,0E0,0E0,0E0,0E0,0E0,0E0,0E0,0E0],"parents":[2147483647,0,0,1,1,2,2,3,3,4,4,5,5,6,6],"right_children":[2,4,6,8,10,12,14,-1,-1,-1,-1,-1,-1,-1,-1],"split_conditions":[8E0,2E0,2E0,1E0,1.5E1,2E1,9E0,-4.5031827E-2,-3.3835117E-2,3.6447123E-3,-3.3608027E-2,-1.10067725E-2,3.8090028E-2,1.7245008E-2,7.620749E-2],"split_indices":[1,2,2,2,3,3,1,0,0,0,0,0,0,0,0],"split_type":[0,0,0,0,0,0,0,0,0,0,0,0,0,0,0],"sum_hessian":[3.05E2,1.11E2,1.94E2,9.2E1,1.9E1,1.1E2,8.4E1,4.6E1,4.6E1,1.2E1,7E0,7.8E1,3.2E1,3.1E1,5.3E1],"tree_param":{"num_deleted":"0","num_feature":"4","num_nodes":"15","size_leaf_vector":"1"}},{"base_weights":[-2.3816817E-2,-3.0640984E-1,9.9303E-1,-5.395363E-1,4.058473E-1,4.0891847E-1,1.6191232E0,-4.0723573E-2,-1.3674284E-2,-1.4404274E-2,4.224985E-2,2.680359E-3,4.5139026E-2,8.5053585E-2,4.1819394E-2],"categories":[],"categories_nodes":[],"categories_segments":[],"categories_sizes":[],"default_left":[0,0,0,0,0,0,0,0,0,0,0,0,0,0,0],"id":1,"left_children":[1,3,5,7,9,11,13,-1,-1,-1,-1,-1,-1,-1,-1],"loss_changes":[8.85219E1,4.0236053E1,2.3840363E1,1.3089947E1,1.8527851E1,6.2686954E0,6.298523E-1,0E0,0E0,0E0,0E0,0E0,0E0,0E0,0E0],"parents":[2147483647,0,0,1,1,2,2,3,3,4,4,5,5,6,6],"right_children":[2,4,6,8,10,12,14,-1,-1,-1,-1,-1,-1,-1,-1],"split_conditions":[2E1,2E0,1.1E1,8E0,8E0,2E0,1.4E1,-4.0723573E-2,-1.3674284E-2,-1.4404274E-2,4.224985E-2,2.680359E-3,4.5139026E-2,8.5053585E-2,4.1819394E-2],"split_indices":[3,2,1,1,1,2,1,0,0,0,0,0,0,0,0],"split_type":[0,0,0,0,0,0,0,0,0,0,0,0,0,0,0],"sum_hessian":[3.06E2,2.4E2,6.6E1,1.81E2,5.9E1,3.5E1,3.1E1,8.8E1,9.3E1,2.3E1,3.6E1,2.1E1,1.4E1,2.7E1,4E0],"tree_param":{"num_deleted":"0","num_feature":"4","num_nodes":"15","size_leaf_vector":"1"}},{"base_weights":[-2.2903236E-2,-6.982969E-1,3.7471336E-1,-9.0330154E-1,-5.493482E-1,-2.709628E-2,1.0018977E0,-1.9098094E-2,-4.6539564E-2,-2.9211974E-2,7.748622E-3,-1.33743975E-2,3.0010004E-2,1.6072346E-2,7.119448E-2],"categories":[],"categories_nodes":[],"categories_segments":[],"categories_sizes":[],"default_left":[0,0,0,0,0,0,0,0,0,0,0,0,0,0,0],"id":2,"left_children":[1,3,5,7,9,11,13,-1,-1,-1,-1,-1,-1,-1,-1],"loss_changes":[8.190018E1,2.9542465E0,4.841282E1,3.0372238E-1,1.7616177E0,1.7954569E1,2.1078156E1,0E0,0E0,0E0,0E0,0E0,0E0,0E0,0E0],"parents":[2147483647,0,0,1,1,2,2,3,3,4,4,5,5,6,6],"right_children":[2,4,6,8,10,12,14,-1,-1,-1,-1,-1,-1,-1,-1],"split_conditions":[8E0,1E0,2E0,2.44E1,4E0,2E1,9E0,-1.9098094E-2,-4.6539564E-2,-2.9211974E-2,7.748622E-3,-1.33743975E-2,3.0010004E-2,1.6072346E-2,7.119448E-2],"split_indices":[1,2,2,0,2,3,1,0,0,0,0,0,0,0,0],"split_type":[0,0,0,0,0,0,0,0,0,0,0,0,0,0,0],"sum_hessian":[3.03E2,1.12E2,1.91E2,4.5E1,6.7E1,1.17E2,7.4E1,3E0,4.2E1,6.4E1,3E0,8.5E1,3.2E1,2.9E1,4.5E1],"tree_param":{"num_deleted":"0","num_feature":"4","num_nodes":"15","size_leaf_vector":"1"}},{"base_weights":[-4.4047095E-2,-6.516103E-1,3.3435473E-1,-8.560245E-1,-4.8219037E-1,-4.3651067E-2,8.7156856E-1,-1.8381918E-2,-4.3877225E-2,1.5739055E-2,-2.5533939E-2,-1.6411375E-2,2.989292E-2,1.4899097E-2,6.1061632E-2],"categories":[],"categories_nodes":[],"categories_segments":[],"categories_sizes":[],"default_left":[0,0,0,0,0,0,0,0,0,0,0,0,0,0,0],"id":3,"left_children":[1,3,5,7,9,11,13,-1,-1,-1,-1,-1,-1,-1,-1],"loss_changes":[7.309713E1,3.8123207E0,3.9839752E1,2.4492264E-1,1.7273617E0,2.1373016E1,1.5881672E1,0E0,0E0,0E0,0E0,0E0,0E0,0E0,0E0],"parents":[2147483647,0,0,1,1,2,2,3,3,4,4,5,5,6,6],"right_children":[2,4,6,8,10,12,14,-1,-1,-1,-1,-1,-1,-1,-1],"split_conditions":[8E0,1E0,2E0,2.44E1,7E0,1.9E1,9E0,-1.8381918E-2,-4.3877225E-2,1.5739055E-2,-2.5533939E-2,-1.6411375E-2,2.989292E-2,1.4899097E-2,6.1061632E-2],"split_indices":[1,2,2,0,3,3,1,0,0,0,0,0,0,0,0],"split_type":[0,0,0,0,0,0,0,0,0,0,0,0,0,0,0],"sum_hessian":[3.16E2,1.21E2,1.95E2,5.3E1,6.8E1,1.15E2,8E1,3E0,5E1,2E0,6.6E1,8E1,3.5E1,3.1E1,4.9E1],"tree_param":{"num_deleted":"0","num_feature":"4","num_nodes":"15","size_leaf_vector":"1"}},{"base_weights":[-2.0835234E-3,-5.772451E-1,3.4605157E-1,-6.65024E-1,-2.3464015E-1,-1.4845705E-2,8.53323E-1,-2.7939303E-2,-3.7840247E-2,2.0451015E-2,-1.7050194E-2,-9.875893E-3,3.930696E-2,2.6119972E-2,7.356546E-2],"categories":[],"categories_nodes":[],"categories_segments":[],"categories_sizes":[],"default_left":[0,0,0,0,0,0,0,0,0,0,0,0,0,0,0],"id":4,"left_children":[1,3,5,7,9,11,13,-1,-1,-1,-1,-1,-1,-1,-1],"loss_changes":[6.107087E1,3.3024101E0,3.4796516E1,4.644127E-1,1.8510303E0,1.654285E1,1.5387375E1,0E0,0E0,0E0,0E0,0E0,0E0,0E0,0E0],"parents":[2147483647,0,0,1,1,2,2,3,3,4,4,5,5,6,6],"right_children":[2,4,6,8,10,12,14,-1,-1,-1,-1,-1,-1,-1,-1],"split_conditions":[8E0,2E0,2E0,1.3E1,2.51E1,2.1E1,1.1E1,-2.7939303E-2,-3.7840247E-2,2.0451015E-2,-1.7050194E-2,-9.875893E-3,3.930696E-2,2.6119972E-2,7.356546E-2],"split_indices":[1,2,2,3,0,3,1,0,0,0,0,0,0,0,0],"split_type":[0,0,0,0,0,0,0,0,0,0,0,0,0,0,0],"sum_hessian":[3.03E2,1.14E2,1.89E2,9E1,2.4E1,1.11E2,7.8E1,4.5E1,4.5E1,3E0,2.1E1,9.1E1,2E1,5.2E1,2.6E1],"tree_param":{"num_deleted":"0","num_feature":"4","num_nodes":"15","size_leaf_vector":"1"}},{"base_weights":[4.1472822E-2,-5.713333E-1,3.611254E-1,-6.547918E-1,-2.7139792E-1,-6.0220755E-4,8.928287E-1,4.067898E-4,-3.3148773E-2,8.523466E-3,-2.2635287E-2,-1.0687909E-2,2.707201E-2,1.1009434E-2,5.894817E-2],"categories":[],"categories_nodes":[],"categories_segments":[],"categories_sizes":[],"default_left":[0,0,0,0,0,0,0,0,0,0,0,0,0,0,0],"id":5,"left_children":[1,3,5,7,9,11,13,-1,-1,-1,-1,-1,-1,-1,-1],"loss_changes":[6.112658E1,2.5007248E0,3.9428547E1,4.5568848E-1,2.0800219E0,1.43271055E1,1.5715057E1,0E0,0E0,0E0,0E0,0E0,0E0,0E0,0E0],"parents":[2147483647,0,0,1,1,2,2,3,3,4,4,5,5,6,6],"right_children":[2,4,6,8,10,12,14,-1,-1,-1,-1,-1,-1,-1,-1],"split_conditions":[8E0,2E0,2E0,4E0,1E1,2E1,9E0,4.067898E-4,-3.3148773E-2,8.523466E-3,-2.2635287E-2,-1.0687909E-2,2.707201E-2,1.1009434E-2,5.894817E-2],"split_indices":[1,2,2,3,3,3,1,0,0,0,0,0,0,0,0],"split_type":[0,0,0,0,0,0,0,0,0,0,0,0,0,0,0],"sum_hessian":[3.1E2,1.06E2,2.04E2,8.2E1,2.4E1,1.22E2,8.2E1,1E0,8.1E1,7E0,1.7E1,8.8E1,3.4E1,2.5E1,5.7E1],"tree_param":{"num_deleted":"0","num_feature":"4","num_nodes":"15","size_leaf_vector":"1"}},{"base_weights":[-1.4156912E-3,-2.3517382E-1,7.875377E-1,-5.3610873E-1,5.31976E-2,3.0645528E-1,1.379314E0,-2.8041502E-2,6.9851563E-3,-1.0582681E-2,3.0049095E-2,-9.6801985E-3,2.7277006E-2,7.320805E-2,3.141541E-2],"categories":[],"categories_nodes":[],"categories_segments":[],"categories_sizes":[],"default_left":[0,0,0,0,0,0,0,0,0,0,0,0,0,0,0],"id":6,"left_children":[1,3,5,7,9,11,13,-1,-1,-1,-1,-1,-1,-1,-1],"loss_changes":[5.8094433E1,2.1116312E1,2.0075203E1,2.066471E0,1.8262365E1,5.007437E0,1.1191139E0,0E0,0E0,0E0,0E0,0E0,0E0,0E0,0E0],"parents":[2147483647,0,0,1,1,2,2,3,3,4,4,5,5,6,6],"right_children":[2,4,6,8,10,12,14,-1,-1,-1,-1,-1,-1,-1,-1],"split_conditions":[2E1,8E0,1.1E1,4E0,2E0,2.65E1,2.78E1,-2.8041502E-2,6.9851563E-3,-1.0582681E-2,3.0049095E-2,-9.6801985E-3,2.7277006E-2,7.320805E-2,3.141541E-2],"split_indices":[3,1,1,2,2,0,0,0,0,0,0,0,0,0,0],"split_type":[0,0,0,0,0,0,0,0,0,0,0,0,0,0,0],"sum_hessian":[3.13E2,2.42E2,7.1E1,1.18E2,1.24E2,4E1,3.1E1,1.14E2,4E0,8.4E1,4E1,1.3E1,2.7E1,2.7E1,4E0],"tree_param":{"num_deleted":"0","num_feature":"4","num_nodes":"15","size_leaf_vector":"1"}},{"base_weights":[1.1507434E-2,-5.3644574E-1,3.3849776E-1,-5.8454174E-1,-2.652003E-1,6.7449748E-3,8.515188E-1,1.0976613E-3,-2.9557848E-2,2.1194998E-2,-2.1045016E-2,-5.0628733E-2,6.1038015E-3,1.2062128E-2,5.501446E-2],"categories":[],"categories_nodes":[],"categories_segments":[],"categories_sizes":[],"default_left":[0,0,0,0,0,0,0,0,0,0,0,0,0,0,0],"id":7,"left_children":[1,3,5,7,9,11,13,-1,-1,-1,-1,-1,-1,-1,-1],"loss_changes":[5.4650898E1,1.3322029E0,3.250172E1,3.9814377E-1,2.2169852E0,1.3878039E1,1.1120972E1,0E0,0E0,0E0,0E0,0E0,0E0,0E0,0E0],"parents":[2147483647,0,0,1,1,2,2,3,3,4,4,5,5,6,6],"right_children":[2,4,6,8,10,12,14,-1,-1,-1,-1,-1,-1,-1,-1],"split_conditions":[8E0,2E0,2E0,4E0,2.51E1,2.5E1,9E0,1.0976613E-3,-2.9557848E-2,2.1194998E-2,-2.1045016E-2,-5.0628733E-2,6.1038015E-3,1.2062128E-2,5.501446E-2],"split_indices":[1,2,2,3,0,0,1,0,0,0,0,0,0,0,0],"split_type":[0,0,0,0,0,0,0,0,0,0,0,0,0,0,0],"sum_hessian":[3.03E2,1.13E2,1.9E2,9.5E1,1.8E1,1.16E2,7.4E1,1E0,9.4E1,3E0,1.5E1,1.1E1,1.05E2,2.2E1,5.2E1],"tree_param":{"num_deleted":"0","num_feature":"4","num_nodes":"15","size_leaf_vector":"1"}},{"base_weights":[4.4736624E-2,-4.8420483E-1,3.27138E-1,-6.3884175E-1,-3.5667616E-1,2.1693161E-1,1.228985E0,-2.9771758E-2,-5.4573115E-2,-2.9585164E-4,-1.9367037E-2,-9.9135395E-3,2.0558584E-2,6.563935E-2,2.6183961E-2],"categories":[],"categories_nodes":[],"categories_segments":[],"categories_sizes":[],"default_left":[0,0,0,0,0,0,0,0,0,0,0,0,0,0,0],"id":8,"left_children":[1,3,5,7,9,11,13,-1,-1,-1,-1,-1,-1,-1,-1],"loss_changes":[4.6763027E1,1.92169E0,2.0008806E1,2.9314804E-1,6.6457176E-1,1.484028E1,6.12854E-1,0E0,0E0,0E0,0E0,0E0,0E0,0E0,0E0],"parents":[2147483647,0,0,1,1,2,2,3,3,4,4,5,5,6,6],"right_children":[2,4,6,8,10,12,14,-1,-1,-1,-1,-1,-1,-1,-1],"split_conditions":[8E0,1E0,1.3E1,2.96E1,2.42E1,1E0,2.86E1,-2.9771758E-2,-5.4573115E-2,-2.9585164E-4,-1.9367037E-2,-9.9135395E-3,2.0558584E-2,6.563935E-2,2.6183961E-2],"split_indices":[1,2,1,0,0,2,0,0,0,0,0,0,0,0,0],"split_type":[0,0,0,0,0,0,0,0,0,0,0,0,0,0,0],"sum_hessian":[3.11E2,1.08E2,2.03E2,4.7E1,6.1E1,1.82E2,2.1E1,4.5E1,2E0,5E0,5.6E1,5.8E1,1.24E2,1.8E1,3E0],"tree_param":{"num_deleted":"0","num_feature":"4","num_nodes":"15","size_leaf_vector":"1"}},{"base_weights":[8.4529575E-3,-1.8836094E-1,7.232262E-1,-4.505045E-1,4.343463E-2,-9.2197455E-2,1.0412924E0,-1.5662177E-2,-2.8250104E-2,-1.7321723E-2,1.4659236E-2,-3.551366E-2,5.3356783E-3,3.4276318E-2,5.890428E-2],"categories":[],"categories_nodes":[],"categories_segments":[],"categories_sizes":[],"default_left":[0,0,0,0,0,0,0,0,0,0,0,0,0,0,0],"id":9,"left_children":[1,3,5,7,9,11,13,-1,-1,-1,-1,-1,-1,-1,-1],"loss_changes":[4.4308903E1,1.5028208E1,1.7732399E1,1.64608E0,1.2954388E1,2.5346372E0,1.5770416E0,0E0,0E0,0E0,0E0,0E0,0E0,0E0,0E0],"parents":[2147483647,0,0,1,1,2,2,3,3,4,4,5,5,6,6],"right_children":[2,4,6,8,10,12,14,-1,-1,-1,-1,-1,-1,-1,-1],"split_conditions":[2E1,8E0,9E0,2.65E1,1E0,8E0,1.1E1,-1.5662177E-2,-2.8250104E-2,-1.7321723E-2,1.4659236E-2,-3.551366E-2,5.3356783E-3,3.4276318E-2,5.890428E-2],"split_indices":[3,1,1,0,2,1,1,0,0,0,0,0,0,0,0],"split_type":[0,0,0,0,0,0,0,0,0,0,0,0,0,0,0],"sum_hessian":[3.13E2,2.46E2,6.7E1,1.15E2,1.31E2,1.9E1,4.8E1,5.4E1,6.1E1,5.1E1,8E1,4E0,1.5E1,1.5E1,3.3E1],"tree_param":{"num_deleted":"0","num_feature":"4","num_nodes":"15","size_leaf_vector":"1"}},{"base_weights":[6.706264E-3,-9.9925265E-2,1.1875976E0,-2.9441267E-1,3.243432E-1,1.2813807E0,5.3743285E-1,-2.6375085E-2,-3.4931598E-3,1.2644549E-3,3.6121678E-2,9.696091E-3,6.61965E-2,7.568795E-3,2.9805157E-2],"categories":[],"categories_nodes":[],"categories_segments":[],"categories_sizes":[],"default_left":[0,0,0,0,0,0,0,0,0,0,0,0,0,0,0],"id":10,"left_children":[1,3,5,7,9,11,13,-1,-1,-1,-1,-1,-1,-1,-1],"loss_changes":[3.953171E1,2.3859776E1,8.966789E-1,1.0326469E1,1.08153305E1,7.612152E-1,2.3014665E-2,0E0,0E0,0E0,0E0,0E0,0E0,0E0,0E0],"parents":[2147483647,0,0,1,1,2,2,3,3,4,4,5,5,6,6],"right_children":[2,4,6,8,10,12,14,-1,-1,-1,-1,-1,-1,-1,-1],"split_conditions":[1.3E1,2E0,2.78E1,1.4E1,9E0,2.4E1,2.6E1,-2.6375085E-2,-3.4931598E-3,1.2644549E-3,3.6121678E-2,9.696091E-3,6.61965E-2,7.568795E-3,2.9805157E-2],"split_indices":[1,2,0,3,1,0,3,0,0,0,0,0,0,0,0],"split_type":[0,0,0,0,0,0,0,0,0,0,0,0,0,0,0],"sum_hessian":[3.12E2,2.87E2,2.5E1,1.97E2,9E1,2.1E1,4E0,9.6E1,1.01E2,5.2E1,3.8E1,1E0,2E1,1E0,3E0],"tree_param":{"num_deleted":"0","num_feature":"4","num_nodes":"15","size_leaf_vector":"1"}},{"base_weights":[-3.561913E-2,-1.2538515E-1,1.2527232E0,-4.3541285E-1,1.0651635E-1,6.873145E-2,3.90967E-1,-2.33037E-2,1.2594163E-3,-2.2367457E-2,1.32866455E-2,2.792848E-2,-2.7960183E-3],"categories":[],"categories_nodes":[],"categories_segments":[],"categories_sizes":[],"default_left":[0,0,0,0,0,0,0,0,0,0,0,0,0],"id":11,"left_children":[1,3,5,7,9,-1,11,-1,-1,-1,-1,-1,-1],"loss_changes":[3.7280518E1,2.1687042E1,1.6686783E0,1.8335495E0,1.5374806E1,0E0,3.3083332E-1,0E0,0E0,0E0,0E0,0E0,0E0],"parents":[2147483647,0,0,1,1,2,2,3,3,4,4,6,6],"right_children":[2,4,6,8,10,-1,12,-1,-1,-1,-1,-1,-1],"split_conditions":[1.3E1,8E0,1.4E1,3E0,1.3E1,6.873145E-2,2.56E1,-2.33037E-2,1.2594163E-3,-2.2367457E-2,1.32866455E-2,2.792848E-2,-2.7960183E-3],"split_indices":[1,1,1,2,3,0,0,0,0,0,0,0,0],"split_type":[0,0,0,0,0,0,0,0,0,0,0,0,0],"sum_hessian":[3.2E2,3E2,2E1,1.28E2,1.72E2,1.7E1,3E0,1.2E2,8E0,3.8E1,1.34E2,2E0,1E0],"tree_param":{"num_deleted":"0","num_feature":"4","num_nodes":"13","size_leaf_vector":"1"}},{"base_weights":[1.707977E-2,-2.0359476E-1,5.589859E-1,-3.502993E-1,2.4801366E-1,-2.2611743E-1,9.060017E-1,-1.1503238E-2,-3.514282E-2,2.9070064E-4,3.5967983E-2,-3.3104125E-2,-4.1800607E-3,2.764671E-2,5.8262523E-2],"categories":[],"categories_nodes":[],"categories_segments":[],"categories_sizes":[],"default_left":[0,0,0,0,0,0,0,0,0,0,0,0,0,0,0],"id":12,"left_children":[1,3,5,7,9,11,13,-1,-1,-1,-1,-1,-1,-1,-1],"loss_changes":[3.802221E1,1.5060058E1,2.5269642E1,7.0869083E0,6.3887677E0,1.7464796E0,5.2137604E0,0E0,0E0,0E0,0E0,0E0,0E0,0E0,0E0],"parents":[2147483647,0,0,1,1,2,2,3,3,4,4,5,5,6,6],"right_children":[2,4,6,8,10,12,14,-1,-1,-1,-1,-1,-1,-1,-1],"split_conditions":[1.9E1,2E0,9E0,9E0,9E0,8E0,1.1E1,-1.1503238E-2,-3.514282E-2,2.9070064E-4,3.5967983E-2,-3.3104125E-2,-4.1800607E-3,2.764671E-2,5.8262523E-2],"split_indices":[3,2,1,1,1,1,1,0,0,0,0,0,0,0,0],"split_type":[0,0,0,0,0,0,0,0,0,0,0,0,0,0,0],"sum_hessian":[3.16E2,2.25E2,9.1E1,1.7E2,5.5E1,2.8E1,6.3E1,1.28E2,4.2E1,3.7E1,1.8E1,6E0,2.2E1,2.8E1,3.5E1],"tree_param":{"num_deleted":"0","num_feature":"4","num_nodes":"15","size_leaf_vector":"1"}},{"base_weights":[1.0306386E-2,-4.26333E-1,2.6104128E-1,-4.506544E-1,1.8427548E-1,-2.1377666E-1,4.5871085E-1,-1.7258508E-2,-2.7487328E-2,-2.9850602E-3,1.8341351E-2,-1.648621E-2,2.7605549E-2,-6.5891217E-3,2.8897772E-2],"categories":[],"categories_nodes":[],"categories_segments":[],"categories_sizes":[],"default_left":[0,0,0,0,0,0,0,0,0,0,0,0,0,0,0],"id":13,"left_children":[1,3,5,7,9,11,13,-1,-1,-1,-1,-1,-1,-1,-1],"loss_changes":[3.3612392E1,1.7463379E0,1.8400188E1,9.391308E-1,2.4459161E-1,5.332606E0,9.793173E0,0E0,0E0,0E0,0E0,0E0,0E0,0E0,0E0],"parents":[2147483647,0,0,1,1,2,2,3,3,4,4,5,5,6,6],"right_children":[2,4,6,8,10,12,14,-1,-1,-1,-1,-1,-1,-1,-1],"split_conditions":[8E0,4E0,1E0,2.66E1,1E1,2.4E1,1.3E1,-1.7258508E-2,-2.7487328E-2,-2.9850602E-3,1.8341351E-2,-1.648621E-2,2.7605549E-2,-6.5891217E-3,2.8897772E-2],"split_indices":[1,2,2,0,3,3,3,0,0,0,0,0,0,0,0],"split_type":[0,0,0,0,0,0,0,0,0,0,0,0,0,0,0],"sum_hessian":[3.05E2,1.11E2,1.94E2,1.07E2,4E0,5.7E1,1.37E2,5.4E1,5.3E1,2E0,2E0,5E1,7E0,2.3E1,1.14E2],"tree_param":{"num_deleted":"0","num_feature":"4","num_nodes":"15","size_leaf_vector":"1"}},{"base_weights":[-3.5632486E-3,-3.7412253E-1,2.3399302E-1,-4.1067845E-1,2.1184248E-1,1.2484827E-1,1.0447778E0,-2.6622752E-2,-1.5333287E-2,2.6775097E-2,-4.47268E-3,-9.942416E-3,1.5836647E-2,6.668897E-2,3.5993528E-2],"categories":[],"categories_nodes":[],"categories_segments":[],"categories_sizes":[],"default_left":[0,0,0,0,0,0,0,0,0,0,0,0,0,0,0],"id":14,"left_children":[1,3,5,7,9,11,13,-1,-1,-1,-1,-1,-1,-1,-1],"loss_changes":[2.8168692E1,2.7645588E0,1.7125677E1,1.3313427E0,8.280413E-1,1.0808431E1,1.199522E0,0E0,0E0,0E0,0E0,0E0,0E0,0E0,0E0],"parents":[2147483647,0,0,1,1,2,2,3,3,4,4,5,5,6,6],"right_children":[2,4,6,8,10,12,14,-1,-1,-1,-1,-1,-1,-1,-1],"split_conditions":[8E0,3E0,1.3E1,1E0,2.58E1,1E0,2.3E1,-2.6622752E-2,-1.5333287E-2,2.6775097E-2,-4.47268E-3,-9.942416E-3,1.5836647E-2,6.668897E-2,3.5993528E-2],"split_indices":[1,2,1,2,0,2,3,0,0,0,0,0,0,0,0],"split_type":[0,0,0,0,0,0,0,0,0,0,0,0,0,0,0],"sum_hessian":[3.18E2,1.24E2,1.94E2,1.17E2,7E0,1.72E2,2.2E1,5.2E1,6.5E1,3E0,4E0,6.4E1,1.08E2,1E1,1.2E1],"tree_param":{"num_deleted":"0","num_feature":"4","num_nodes":"15","size_leaf_vector":"1"}},{"base_weights":[-3.3802617E-2,-3.9407176E-1,1.9649392E-1,-5.168087E-1,-2.9551277E-1,-1.7078752E-2,5.1291424E-1,-2.2473784E-2,-4.1968618E-2,2.6787896E-2,-1.5766239E-2,-6.054675E-3,3.1704046E-2,5.2295243E-3,3.5951424E-2],"categories":[],"categories_nodes":[],"categories_segments":[],"categories_sizes":[],"default_left":[0,0,0,0,0,0,0,0,0,0,0,0,0,0,0],"id":15,"left_children":[1,3,5,7,9,11,13,-1,-1,-1,-1,-1,-1,-1,-1],"loss_changes":[2.5963676E1,1.3230896E0,1.2916298E1,7.7383995E-1,1.3217778E0,7.865757E0,6.40522E0,0E0,0E0,0E0,0E0,0E0,0E0,0E0,0E0],"parents":[2147483647,0,0,1,1,2,2,3,3,4,4,5,5,6,6],"right_children":[2,4,6,8,10,12,14,-1,-1,-1,-1,-1,-1,-1,-1],"split_conditions":[8E0,1E0,2E0,2.84E1,7E0,2.3E1,9E0,-2.2473784E-2,-4.1968618E-2,2.6787896E-2,-1.5766239E-2,-6.054675E-3,3.1704046E-2,5.2295243E-3,3.5951424E-2],"split_indices":[1,2,2,0,3,3,1,0,0,0,0,0,0,0,0],"split_type":[0,0,0,0,0,0,0,0,0,0,0,0,0,0,0],"sum_hessian":[3.11E2,1.21E2,1.9E2,5.2E1,6.9E1,1.14E2,7.6E1,4.5E1,7E0,1E0,6.8E1,9.9E1,1.5E1,2.6E1,5E1],"tree_param":{"num_deleted":"0","num_feature":"4","num_nodes":"15","size_leaf_vector":"1"}},{"base_weights":[2.4194287E-2,-3.4758195E-1,2.3941027E-1,-4.0163186E-1,-1.2140397E-1,1.1355815E-1,7.462724E-1,-1.9002803E-2,-4.647061E-2,8.245668E-3,-2.1073205E-2,-1.3082764E-2,1.1485814E-2,1.2448342E-2,4.752558E-2],"categories":[],"categories_nodes":[],"categories_segments":[],"categories_sizes":[],"default_left":[0,0,0,0,0,0,0,0,0,0,0,0,0,0,0],"id":16,"left_children":[1,3,5,7,9,11,13,-1,-1,-1,-1,-1,-1,-1,-1],"loss_changes":[2.5527088E1,1.3815527E0,1.2800768E1,7.1717644E-1,2.1314027E0,7.164312E0,3.826126E0,0E0,0E0,0E0,0E0,0E0,0E0,0E0,0E0],"parents":[2147483647,0,0,1,1,2,2,3,3,4,4,5,5,6,6],"right_children":[2,4,6,8,10,12,14,-1,-1,-1,-1,-1,-1,-1,-1],"split_conditions":[8E0,2E0,3E0,2.97E1,2.64E1,1.3E1,9E0,-1.9002803E-2,-4.647061E-2,8.245668E-3,-2.1073205E-2,-1.3082764E-2,1.1485814E-2,1.2448342E-2,4.752558E-2],"split_indices":[1,2,2,0,0,3,1,0,0,0,0,0,0,0,0],"split_type":[0,0,0,0,0,0,0,0,0,0,0,0,0,0,0],"sum_hessian":[3.17E2,1.16E2,2.01E2,9.3E1,2.3E1,1.62E2,3.9E1,9.1E1,2E0,1.2E1,1.1E1,3.8E1,1.24E2,1.2E1,2.7E1],"tree_param":{"num_deleted":"0","num_feature":"4","num_nodes":"15","size_leaf_vector":"1"}},{"base_weights":[-9.485781E-3,-1.3616656E-1,6.1705595E-1,-2.527104E-1,2.7898312E-1,1.4763458E-1,8.88844E-1,-8.311774E-3,-4.4125833E-2,-1.766637E-2,3.061523E-2,1.8282462E-2,-1.26172695E-2,5.12364E-2,4.1965325E-3],"categories":[],"categories_nodes":[],"categories_segments":[],"categories_sizes":[],"default_left":[0,0,0,0,0,0,0,0,0,0,0,0,0,0,0],"id":17,"left_children":[1,3,5,7,9,11,13,-1,-1,-1,-1,-1,-1,-1,-1],"loss_changes":[2.5482677E1,1.2988801E1,6.7582645E0,1.123595E1,1.26513405E1,1.9235011E0,3.63274E0,0E0,0E0,0E0,0E0,0E0,0E0,0E0,0E0],"parents":[2147483647,0,0,1,1,2,2,3,3,4,4,5,5,6,6],"right_children":[2,4,6,8,10,12,14,-1,-1,-1,-1,-1,-1,-1,-1],"split_conditions":[3E0,1.9E1,9E0,1.1E1,9E0,2.74E1,2.8E1,-8.311774E-3,-4.4125833E-2,-1.766637E-2,3.061523E-2,1.8282462E-2,-1.26172695E-2,5.12364E-2,4.1965325E-3],"split_indices":[2,3,1,1,1,0,0,0,0,0,0,0,0,0,0],"split_type":[0,0,0,0,0,0,0,0,0,0,0,0,0,0,0],"sum_hessian":[3.19E2,2.66E2,5.3E1,2.08E2,5.8E1,2E1,3.3E1,1.84E2,2.4E1,2E1,3.8E1,1.3E1,7E0,2.8E1,5E0],"tree_param":{"num_deleted":"0","num_feature":"4","num_nodes":"15","size_leaf_vector":"1"}},{"base_weights":[1.3693315E-2,-1.8755932E-1,4.102039E-1,-3.939584E-1,1.6652964E-2,6.1007928E-2,6.909409E-1,-2.4458228E-2,-1.4147016E-2,-1.7684592E-2,1.3872134E-2,1.4205024E-2,3.4694454E-5,4.4253744E-2,1.4376968E-2],"categories":[],"categories_nodes":[],"categories_segments":[],"categories_sizes":[],"default_left":[0,0,0,0,0,0,0,0,0,0,0,0,0,0,0],"id":18,"left_children":[1,3,5,7,9,11,13,-1,-1,-1,-1,-1,-1,-1,-1],"loss_changes":[2.4415573E1,8.562854E0,1.0055166E1,9.291258E-1,1.0046085E1,6.3221663E-1,4.2094E0,0E0,0E0,0E0,0E0,0E0,0E0,0E0,0E0],"parents":[2147483647,0,0,1,1,2,2,3,3,4,4,5,5,6,6],"right_children":[2,4,6,8,10,12,14,-1,-1,-1,-1,-1,-1,-1,-1],"split_conditions":[2E0,8E0,9E0,1E0,2.65E1,2.51E1,2.74E1,-2.4458228E-2,-1.4147016E-2,-1.7684592E-2,1.3872134E-2,1.4205024E-2,3.4694454E-5,4.4253744E-2,1.4376968E-2],"split_indices":[2,1,1,2,0,0,0,0,0,0,0,0,0,0,0],"split_type":[0,0,0,0,0,0,0,0,0,0,0,0,0,0,0],"sum_hessian":[3.04E2,2.02E2,1.02E2,1E2,1.02E2,4.6E1,5.6E1,5.2E1,4.8E1,4.2E1,6E1,9E0,3.7E1,3.7E1,1.9E1],"tree_param":{"num_deleted":"0","num_feature":"4","num_nodes":"15","size_leaf_vector":"1"}},{"base_weights":[-4.0744904E-2,-1.19134404E-1,8.26305E-1,-2.313296E-1,2.1434475E-1,9.9396896E-1,4.75412E-1,-6.7725736E-3,-4.4678964E-2,-1.5996091E-2,3.000218E-2,4.350543E-4,5.295367E-2,6.232486E-3,3.442393E-2],"categories":[],"categories_nodes":[],"categories_segments":[],"categories_sizes":[],"default_left":[0,0,0,0,0,0,0,0,0,0,0,0,0,0,0],"id":19,"left_children":[1,3,5,7,9,11,13,-1,-1,-1,-1,-1,-1,-1,-1],"loss_changes":[2.0488722E1,1.0376059E1,9.982586E-1,1.3022481E1,1.4616587E1,1.0171099E0,6.6153884E-1,0E0,0E0,0E0,0E0,0E0,0E0,0E0,0E0],"parents":[2147483647,0,0,1,1,2,2,3,3,4,4,5,5,6,6],"right_children":[2,4,6,8,10,12,14,-1,-1,-1,-1,-1,-1,-1,-1],"split_conditions":[1.3E1,1.9E1,2.5E1,1.2E1,9E0,2.4E1,2.8E1,-6.7725736E-3,-4.4678964E-2,-1.5996091E-2,3.000218E-2,4.350543E-4,5.295367E-2,6.232486E-3,3.442393E-2],"split_indices":[1,3,3,1,1,0,3,0,0,0,0,0,0,0,0],"split_type":[0,0,0,0,0,0,0,0,0,0,0,0,0,0,0],"sum_hessian":[2.99E2,2.75E2,2.4E1,2.06E2,6.9E1,1.5E1,9E0,1.81E2,2.5E1,2.9E1,4E1,1E0,1.4E1,4E0,5E0],"tree_param":{"num_deleted":"0","num_feature":"4","num_nodes":"15","size_leaf_vector":"1"}},{"base_weights":[1.8000208E-2,-4.3326307E-2,7.9846406E-1,-9.7375944E-2,5.954032E-1,9.8318785E-1,4.6000433E-1,-8.820121E-3,9.173694E-3,4.557584E-2,1.4106116E-2,4.2418242E-4,5.2875627E-2,5.9831883E-3,3.3347707E-2],"categories":[],"categories_nodes":[],"categories_segments":[],"categories_sizes":[],"default_left":[0,0,0,0,0,0,0,0,0,0,0,0,0,0,0],"id":20,"left_children":[1,3,5,7,9,11,13,-1,-1,-1,-1,-1,-1,-1,-1],"loss_changes":[1.511148E1,1.0173246E1,9.8572636E-1,6.0470943E0,2.0205832E0,1.0052519E0,6.245239E-1,0E0,0E0,0E0,0E0,0E0,0E0,0E0,0E0],"parents":[2147483647,0,0,1,1,2,2,3,3,4,4,5,5,6,6],"right_children":[2,4,6,8,10,12,14,-1,-1,-1,-1,-1,-1,-1,-1],"split_conditions":[1.3E1,4E0,2.5E1,1.9E1,2.7E1,2.4E1,2.8E1,-8.820121E-3,9.173694E-3,4.557584E-2,1.4106116E-2,4.2418242E-4,5.2875627E-2,5.9831883E-3,3.3347707E-2],"split_indices":[1,2,3,3,0,0,3,0,0,0,0,0,0,0,0],"split_type":[0,0,0,0,0,0,0,0,0,0,0,0,0,0,0],"sum_hessian":[3.14E2,2.92E2,2.2E1,2.7E2,2.2E1,1.3E1,9E0,2.11E2,5.9E1,1E1,1.2E1,1E0,1.2E1,4E0,5E0],"tree_param":{"num_deleted":"0","num_feature":"4","num_nodes":"15","size_leaf_vector":"1"}},{"base_weights":[-3.3645257E-3,-3.177623E-1,1.8562649E-1,-3.7115198E-1,-9.270897E-2,-3.1798512E-1,3.0699492E-1,-1.7515082E-2,-4.3299764E-2,8.084118E-3,-2.949515E-2,3.68123E-3,-3.272673E-2,7.5112577E-3,3.0279318E-2],"categories":[],"categories_nodes":[],"categories_segments":[],"categories_sizes":[],"default_left":[0,0,0,0,0,0,0,0,0,0,0,0,0,0,0],"id":21,"left_children":[1,3,5,7,9,11,13,-1,-1,-1,-1,-1,-1,-1,-1],"loss_changes":[1.7884491E1,1.3233452E0,1.158866E1,6.355486E-1,3.0044599E0,4.9246435E0,7.0241632E0,0E0,0E0,0E0,0E0,0E0,0E0,0E0,0E0],"parents":[2147483647,0,0,1,1,2,2,3,3,4,4,5,5,6,6],"right_children":[2,4,6,8,10,12,14,-1,-1,-1,-1,-1,-1,-1,-1],"split_conditions":[8E0,2E0,1.3E1,2.97E1,2.64E1,9E0,1.1E1,-1.7515082E-2,-4.3299764E-2,8.084118E-3,-2.949515E-2,3.68123E-3,-3.272673E-2,7.5112577E-3,3.0279318E-2],"split_indices":[1,2,3,0,0,1,1,0,0,0,0,0,0,0,0],"split_type":[0,0,0,0,0,0,0,0,0,0,0,0,0,0,0],"sum_hessian":[2.99E2,1.12E2,1.87E2,9E1,2.2E1,3.6E1,1.51E2,8.8E1,2E0,1.5E1,7E0,1.7E1,1.9E1,1E2,5.1E1],"tree_param":{"num_deleted":"0","num_feature":"4","num_nodes":"15","size_leaf_vector":"1"}},{"base_weights":[-5.5525644E-4,-6.633207E-2,8.097208E-1,-2.7633587E-1,8.108516E-2,9.0243804E-1,1.668837E-1,-1.523836E-2,9.683609E-3,-7.964299E-3,1.3978126E-2,-3.434062E-4,4.766683E-2,-1.0311961E-3,1.1813045E-2],"categories":[],"categories_nodes":[],"categories_segments":[],"categories_sizes":[],"default_left":[0,0,0,0,0,0,0,0,0,0,0,0,0,0,0],"id":22,"left_children":[1,3,5,7,9,11,13,-1,-1,-1,-1,-1,-1,-1,-1],"loss_changes":[1.5616547E1,8.412073E0,1.1606417E0,1.5556765E0,7.677847E0,8.859129E-1,5.690763E-2,0E0,0E0,0E0,0E0,0E0,0E0,0E0,0E0],"parents":[2147483647,0,0,1,1,2,2,3,3,4,4,5,5,6,6],"right_children":[2,4,6,8,10,12,14,-1,-1,-1,-1,-1,-1,-1,-1],"split_conditions":[1.3E1,8E0,2.78E1,3E0,2.65E1,2.4E1,2.95E1,-1.523836E-2,9.683609E-3,-7.964299E-3,1.3978126E-2,-3.434062E-4,4.766683E-2,-1.0311961E-3,1.1813045E-2],"split_indices":[1,1,0,2,0,0,0,0,0,0,0,0,0,0,0],"split_type":[0,0,0,0,0,0,0,0,0,0,0,0,0,0,0],"sum_hessian":[2.91E2,2.7E2,2.1E1,1.11E2,1.59E2,1.8E1,3E0,1.05E2,6E0,7.2E1,8.7E1,1E0,1.7E1,1E0,2E0],"tree_param":{"num_deleted":"0","num_feature":"4","num_nodes":"15","size_leaf_vector":"1"}},{"base_weights":[-3.868793E-3,-1.24806434E-1,4.1859266E-1,-1.7560136E-1,3.0198237E-1,-1.3282868E-1,6.3078934E-1,-5.7062944E-3,-3.2035448E-2,3.445825E-2,-1.3947944E-3,-1.3330098E-3,-3.627817E-2,1.7901357E-2,3.865149E-2],"categories":[],"categories_nodes":[],"categories_segments":[],"categories_sizes":[],"default_left":[0,0,0,0,0,0,0,0,0,0,0,0,0,0,0],"id":23,"left_children":[1,3,5,7,9,11,13,-1,-1,-1,-1,-1,-1,-1,-1],"loss_changes":[1.5839514E1,5.2775955E0,8.157462E0,6.1029043E0,3.3400261E0,1.2392513E0,1.663126E0,0E0,0E0,0E0,0E0,0E0,0E0,0E0,0E0],"parents":[2147483647,0,0,1,1,2,2,3,3,4,4,5,5,6,6],"right_children":[2,4,6,8,10,12,14,-1,-1,-1,-1,-1,-1,-1,-1],"split_conditions":[2E1,3E0,1E1,1.2E1,2.7E1,2.92E1,2.65E1,-5.7062944E-3,-3.2035448E-2,3.445825E-2,-1.3947944E-3,-1.3330098E-3,-3.627817E-2,1.7901357E-2,3.865149E-2],"split_indices":[3,2,1,1,0,0,0,0,0,0,0,0,0,0,0],"split_type":[0,0,0,0,0,0,0,0,0,0,0,0,0,0,0],"sum_hessian":[3.08E2,2.4E2,6.8E1,2.15E2,2.5E1,1.9E1,4.9E1,1.91E2,2.4E1,1.1E1,1.4E1,1.7E1,2E0,1.8E1,3.1E1],"tree_param":{"num_deleted":"0","num_feature":"4","num_nodes":"15","size_leaf_vector":"1"}},{"base_weights":[-5.3524382E-2,-1.1304789E-1,7.2778434E-1,-3.3571437E-1,2.642716E-2,4.7035407E-2,3.5691255E-1,-2.4433468E-2,-7.859426E-3,-5.6882766E-3,1.224981E-2,2.4689198E-3,2.7685283E-2],"categories":[],"categories_nodes":[],"categories_segments":[],"categories_sizes":[],"default_left":[0,0,0,0,0,0,0,0,0,0,0,0,0],"id":24,"left_children":[1,3,5,7,9,-1,11,-1,-1,-1,-1,-1,-1],"loss_changes":[1.5103789E1,9.3568535E0,1.4805002E0,3.0907297E0,5.727243E0,0E0,5.7786477E-1,0E0,0E0,0E0,0E0,0E0,0E0],"parents":[2147483647,0,0,1,1,2,2,3,3,4,4,6,6],"right_children":[2,4,6,8,10,-1,12,-1,-1,-1,-1,-1,-1],"split_conditions":[1.3E1,1E0,2.5E1,1.4E1,1.7E1,4.7035407E-2,2.8E1,-2.4433468E-2,-7.859426E-3,-5.6882766E-3,1.224981E-2,2.4689198E-3,2.7685283E-2],"split_indices":[1,2,3,3,3,0,3,0,0,0,0,0,0],"split_type":[0,0,0,0,0,0,0,0,0,0,0,0,0],"sum_hessian":[3.22E2,3E2,2.2E1,1.15E2,1.85E2,1.3E1,9E0,6.1E1,5.4E1,1.13E2,7.2E1,4E0,5E0],"tree_param":{"num_deleted":"0","num_feature":"4","num_nodes":"13","size_leaf_vector":"1"}},{"base_weights":[-1.3995869E-2,-1.0325917E-1,4.8009887E-1,-2.9893836E-1,4.684224E-2,1.3658963E-1,6.886015E-1,-8.153267E-3,-4.2677324E-2,-5.8424583E-4,2.8328104E-2,2.1013258E-2,-5.3962874E-3,3.790476E-2,3.2371134E-3],"categories":[],"categories_nodes":[],"categories_segments":[],"categories_sizes":[],"default_left":[0,0,0,0,0,0,0,0,0,0,0,0,0,0,0],"id":25,"left_children":[1,3,5,7,9,11,13,-1,-1,-1,-1,-1,-1,-1,-1],"loss_changes":[1.354556E1,7.65065E0,3.2722054E0,8.376077E0,4.508443E0,1.3632548E0,1.2081947E0,0E0,0E0,0E0,0E0,0E0,0E0,0E0,0E0],"parents":[2147483647,0,0,1,1,2,2,3,3,4,4,5,5,6,6],"right_children":[2,4,6,8,10,12,14,-1,-1,-1,-1,-1,-1,-1,-1],"split_conditions":[3E0,1.4E1,9E0,9E0,1.3E1,2.68E1,2.84E1,-8.153267E-3,-4.2677324E-2,-5.8424583E-4,2.8328104E-2,2.1013258E-2,-5.3962874E-3,3.790476E-2,3.2371134E-3],"split_indices":[2,3,1,1,1,0,0,0,0,0,0,0,0,0,0],"split_type":[0,0,0,0,0,0,0,0,0,0,0,0,0,0,0],"sum_hessian":[3.05E2,2.59E2,4.6E1,1.12E2,1.47E2,1.8E1,2.8E1,9.1E1,2.1E1,1.33E2,1.4E1,8E0,1E1,2.5E1,3E0],"tree_param":{"num_deleted":"0","num_feature":"4","num_nodes":"15","size_leaf_vector":"1"}},{"base_weights":[2.210011E-2,-5.8559623E-2,4.6526822E-1,-1.198561E-1,2.1284032E-1,2.6443064E-1,7.578924E-1,-2.2168322E-3,-3.350119E-2,-5.4263873E-3,3.6298778E-2,2.3556707E-2,-6.771651E-3,4.454418E-2,1.0367024E-2],"categories":[],"categories_nodes":[],"categories_segments":[],"categories_sizes":[],"default_left":[0,0,0,0,0,0,0,0,0,0,0,0,0,0,0],"id":26,"left_children":[1,3,5,7,9,11,13,-1,-1,-1,-1,-1,-1,-1,-1],"loss_changes":[1.1144196E1,4.4173775E0,2.6205473E0,8.944739E0,8.159147E0,2.5434036E0,1.2064362E0,0E0,0E0,0E0,0E0,0E0,0E0,0E0,0E0],"parents":[2147483647,0,0,1,1,2,2,3,3,4,4,5,5,6,6],"right_children":[2,4,6,8,10,12,14,-1,-1,-1,-1,-1,-1,-1,-1],"split_conditions":[3E0,2E1,1.1E1,1.2E1,1.1E1,2.74E1,2.6E1,-2.2168322E-3,-3.350119E-2,-5.4263873E-3,3.6298778E-2,2.3556707E-2,-6.771651E-3,4.454418E-2,1.0367024E-2],"split_indices":[2,3,1,1,1,0,3,0,0,0,0,0,0,0,0],"split_type":[0,0,0,0,0,0,0,0,0,0,0,0,0,0,0],"sum_hessian":[3.1E2,2.63E2,4.7E1,2.15E2,4.8E1,2.9E1,1.8E1,1.9E2,2.5E1,3E1,1.8E1,1.9E1,1E1,1.4E1,4E0],"tree_param":{"num_deleted":"0","num_feature":"4","num_nodes":"15","size_leaf_vector":"1"}},{"base_weights":[1.2265394E-2,-4.0885635E-2,6.650691E-1,-2.1526672E-1,7.658462E-2,7.6126957E-1,1.4725319E-1,6.6850595E-3,-1.2081104E-2,-9.293386E-3,7.853648E-3,3.226614E-3,4.1754987E-2,-3.227961E-3,1.0817304E-2],"categories":[],"categories_nodes":[],"categories_segments":[],"categories_sizes":[],"default_left":[0,0,0,0,0,0,0,0,0,0,0,0,0,0,0],"id":27,"left_children":[1,3,5,7,9,11,13,-1,-1,-1,-1,-1,-1,-1,-1],"loss_changes":[1.1060898E1,6.0594406E0,1.0834398E0,1.1267691E0,3.7682047E0,9.749136E-1,8.71408E-2,0E0,0E0,0E0,0E0,0E0,0E0,0E0,0E0],"parents":[2147483647,0,0,1,1,2,2,3,3,4,4,5,5,6,6],"right_children":[2,4,6,8,10,12,14,-1,-1,-1,-1,-1,-1,-1,-1],"split_conditions":[1.3E1,8E0,2.79E1,2.44E1,1.4E1,2.51E1,2.6E1,6.6850595E-3,-1.2081104E-2,-9.293386E-3,7.853648E-3,3.226614E-3,4.1754987E-2,-3.227961E-3,1.0817304E-2],"split_indices":[1,1,0,0,3,0,3,0,0,0,0,0,0,0,0],"split_type":[0,0,0,0,0,0,0,0,0,0,0,0,0,0,0],"sum_hessian":[3.17E2,2.94E2,2.3E1,1.18E2,1.76E2,1.9E1,4E0,8E0,1.1E2,4.1E1,1.35E2,2E0,1.7E1,1E0,3E0],"tree_param":{"num_deleted":"0","num_feature":"4","num_nodes":"15","size_leaf_vector":"1"}},{"base_weights":[2.7959388E-2,-2.4205784E-1,1.8689054E-1,-2.5888723E-1,1.934298E-1,-9.056885E-2,3.1622365E-1,-1.1681743E-2,-2.8371677E-2,-6.492058E-4,1.6768357E-2,-1.7543992E-2,5.7953247E-3,-4.0607557E-2,1.7798366E-2],"categories":[],"categories_nodes":[],"categories_segments":[],"categories_sizes":[],"default_left":[0,0,0,0,0,0,0,0,0,0,0,0,0,0,0],"id":28,"left_children":[1,3,5,7,9,11,13,-1,-1,-1,-1,-1,-1,-1,-1],"loss_changes":[1.3777766E1,9.222269E-1,7.2773457E0,7.634535E-1,1.5084364E-1,3.5342765E0,6.477813E0,0E0,0E0,0E0,0E0,0E0,0E0,0E0,0E0],"parents":[2147483647,0,0,1,1,2,2,3,3,4,4,5,5,6,6],"right_children":[2,4,6,8,10,12,14,-1,-1,-1,-1,-1,-1,-1,-1],"split_conditions":[8E0,4E0,1E0,1.8E1,1E1,2.65E1,1E1,-1.1681743E-2,-2.8371677E-2,-6.492058E-4,1.6768357E-2,-1.7543992E-2,5.7953247E-3,-4.0607557E-2,1.7798366E-2],"split_indices":[1,2,2,3,3,0,3,0,0,0,0,0,0,0,0],"split_type":[0,0,0,0,0,0,0,0,0,0,0,0,0,0,0],"sum_hessian":[3.19E2,1.18E2,2.01E2,1.14E2,4E0,6.4E1,1.37E2,1.07E2,7E0,2E0,2E0,2.8E1,3.6E1,4E0,1.33E2],"tree_param":{"num_deleted":"0","num_feature":"4","num_nodes":"15","size_leaf_vector":"1"}},{"base_weights":[4.2548858E-2,-2.0092739E-1,1.7624804E-1,-4.325007E-1,-1.6265106E-1,-8.504768E-2,2.998361E-1,-7.877401E-3,-3.6211275E-2,1.4606326E-2,-9.2799645E-3,-2.0844895E-2,4.7215726E-3,1.1355485E-2,3.436425E-2],"categories":[],"categories_nodes":[],"categories_segments":[],"categories_sizes":[],"default_left":[0,0,0,0,0,0,0,0,0,0,0,0,0,0,0],"id":29,"left_children":[1,3,5,7,9,11,13,-1,-1,-1,-1,-1,-1,-1,-1],"loss_changes":[1.0094159E1,9.0466833E-1,6.4841065E0,1.0890574E0,1.0561068E0,3.910781E0,3.6760864E0,0E0,0E0,0E0,0E0,0E0,0E0,0E0,0E0],"parents":[2147483647,0,0,1,1,2,2,3,3,4,4,5,5,6,6],"right_children":[2,4,6,8,10,12,14,-1,-1,-1,-1,-1,-1,-1,-1],"split_conditions":[8E0,2.49E1,1E0,1.2E1,2.51E1,2.64E1,1.3E1,-7.877401E-3,-3.6211275E-2,1.4606326E-2,-9.2799645E-3,-2.0844895E-2,4.7215726E-3,1.1355485E-2,3.436425E-2],"split_indices":[1,0,2,3,0,0,1,0,0,0,0,0,0,0,0],"split_type":[0,0,0,0,0,0,0,0,0,0,0,0,0,0,0],"sum_hessian":[3.08E2,1.09E2,1.99E2,1.4E1,9.5E1,6.4E1,1.35E2,8E0,6E0,4E0,9.1E1,2.2E1,4.2E1,1.15E2,2E1],"tree_param":{"num_deleted":"0","num_feature":"4","num_nodes":"15","size_leaf_vector":"1"}},{"base_weights":[5.3811003E-3,-1.3264333E-1,2.86843E-1,-3.1931177E-1,-4.08405E-3,-2.1814033E-2,5.558929E-1,-9.124191E-3,-3.2688912E-2,-9.473398E-3,6.949237E-3,7.1447054E-3,-7.2283032E-3,6.467714E-2,2.4356907E-2],"categories":[],"categories_nodes":[],"categories_segments":[],"categories_sizes":[],"default_left":[0,0,0,0,0,0,0,0,0,0,0,0,0,0,0],"id":30,"left_children":[1,3,5,7,9,11,13,-1,-1,-1,-1,-1,-1,-1,-1],"loss_changes":[1.1925725E1,4.942275E0,8.399584E0,3.7249022E0,3.2886193E0,9.91134E-1,2.1085815E0,0E0,0E0,0E0,0E0,0E0,0E0,0E0,0E0],"parents":[2147483647,0,0,1,1,2,2,3,3,4,4,5,5,6,6],"right_children":[2,4,6,8,10,12,14,-1,-1,-1,-1,-1,-1,-1,-1],"split_conditions":[2E0,2.64E1,1E1,9E0,8E0,1.5E1,1.4E1,-9.124191E-3,-3.2688912E-2,-9.473398E-3,6.949237E-3,7.1447054E-3,-7.2283032E-3,6.467714E-2,2.4356907E-2],"split_indices":[2,0,1,1,1,3,3,0,0,0,0,0,0,0,0],"split_type":[0,0,0,0,0,0,0,0,0,0,0,0,0,0,0],"sum_hessian":[3.05E2,2.05E2,1E2,8.3E1,1.22E2,4.7E1,5.3E1,6E1,2.3E1,5.3E1,6.9E1,2E1,2.7E1,3E0,5E1],"tree_param":{"num_deleted":"0","num_feature":"4","num_nodes":"15","size_leaf_vector":"1"}},{"base_weights":[-1.2971353E-2,-7.466037E-2,6.8586713E-1,-1.118103E-1,5.1320386E-1,-1.536514E-1,7.6554924E-1,-1.0767204E-2,-1.8380812E-3,3.4559034E-2,8.010565E-3,-9.838927E-3,-1.684928E-3,2.061061E-2,4.471855E-2],"categories":[],"categories_nodes":[],"categories_segments":[],"categories_sizes":[],"default_left":[0,0,0,0,0,0,0,0,0,0,0,0,0,0,0],"id":31,"left_children":[1,3,5,7,9,11,13,-1,-1,-1,-1,-1,-1,-1,-1],"loss_changes":[1.3286179E1,6.2378507E0,1.7899942E0,2.066693E0,9.572816E-1,8.888513E-3,6.7823124E-1,0E0,0E0,0E0,0E0,0E0,0E0,0E0,0E0],"parents":[2147483647,0,0,1,1,2,2,3,3,4,4,5,5,6,6],"right_children":[2,4,6,8,10,12,14,-1,-1,-1,-1,-1,-1,-1,-1],"split_conditions":[4E0,1.3E1,2.43E1,8E0,2.7E1,2.33E1,9E0,-1.0767204E-2,-1.8380812E-3,3.4559034E-2,8.010565E-3,-9.838927E-3,-1.684928E-3,2.061061E-2,4.471855E-2],"split_indices":[2,1,0,1,0,0,1,0,0,0,0,0,0,0,0],"split_type":[0,0,0,0,0,0,0,0,0,0,0,0,0,0,0],"sum_hessian":[3.06E2,2.82E2,2.4E1,2.66E2,1.6E1,2E0,2.2E1,1.11E2,1.55E2,1E1,6E0,1E0,1E0,7E0,1.5E1],"tree_param":{"num_deleted":"0","num_feature":"4","num_nodes":"15","size_leaf_vector":"1"}},{"base_weights":[-3.6791142E-2,-1.4545533E-1,1.8924977E-1,-3.0114657E-1,-1.1142688E-2,-3.3025954E-2,4.0376085E-1,-8.947347E-3,-4.239461E-2,-8.981362E-3,5.227438E-3,8.200586E-3,-9.747639E-3,2.8386464E-2,7.3454264E-3],"categories":[],"categories_nodes":[],"categories_segments":[],"categories_sizes":[],"default_left":[0,0,0,0,0,0,0,0,0,0,0,0,0,0,0],"id":32,"left_children":[1,3,5,7,9,11,13,-1,-1,-1,-1,-1,-1,-1,-1],"loss_changes":[7.8629804E0,4.513485E0,4.972117E0,6.529481E0,2.2993696E0,1.6910701E0,2.1487274E0,0E0,0E0,0E0,0E0,0E0,0E0,0E0,0E0],"parents":[2147483647,0,0,1,1,2,2,3,3,4,4,5,5,6,6],"right_children":[2,4,6,8,10,12,14,-1,-1,-1,-1,-1,-1,-1,-1],"split_conditions":[2E0,1.4E1,9E0,9E0,2.64E1,1.5E1,2.72E1,-8.947347E-3,-4.239461E-2,-8.981362E-3,5.227438E-3,8.200586E-3,-9.747639E-3,2.8386464E-2,7.3454264E-3],"split_indices":[2,3,1,1,0,3,0,0,0,0,0,0,0,0,0],"split_type":[0,0,0,0,0,0,0,0,0,0,0,0,0,0,0],"sum_hessian":[3.18E2,2.15E2,1.03E2,9.9E1,1.16E2,5.1E1,5.2E1,8.2E1,1.7E1,4.7E1,6.9E1,2.3E1,2.8E1,3.1E1,2.1E1],"tree_param":{"num_deleted":"0","num_feature":"4","num_nodes":"15","size_leaf_vector":"1"}},{"base_weights":[3.4195762E-2,-1.4122853E-1,1.8543662E-1,-4.5305163E-2,-7.4467576E-1,5.247864E-2,4.882696E-1,-3.406257E-3,6.7327306E-2,-6.2941425E-2,-1.6762607E-3,-5.2106935E-3,6.206273E-3,1.1001581E-2,3.1846147E-2],"categories":[],"categories_nodes":[],"categories_segments":[],"categories_sizes":[],"default_left":[0,0,0,0,0,0,0,0,0,0,0,0,0,0,0],"id":33,"left_children":[1,3,5,7,9,11,13,-1,-1,-1,-1,-1,-1,-1,-1],"loss_changes":[7.9590535E0,8.012234E0,6.456891E0,3.9349372E0,6.904956E0,1.2815323E0,1.8137054E0,0E0,0E0,0E0,0E0,0E0,0E0,0E0,0E0],"parents":[2147483647,0,0,1,1,2,2,3,3,4,4,5,5,6,6],"right_children":[2,4,6,8,10,12,14,-1,-1,-1,-1,-1,-1,-1,-1],"split_conditions":[1.5E1,1.2E1,1.1E1,1.1E1,2.69E1,1E0,2.65E1,-3.406257E-3,6.7327306E-2,-6.2941425E-2,-1.6762607E-3,-5.2106935E-3,6.206273E-3,1.1001581E-2,3.1846147E-2],"split_indices":[3,1,1,1,0,2,0,0,0,0,0,0,0,0,0],"split_type":[0,0,0,0,0,0,0,0,0,0,0,0,0,0,0],"sum_hessian":[2.98E2,1.38E2,1.6E2,1.2E2,1.8E1,1.12E2,4.8E1,1.19E2,1E0,1E1,8E0,3.5E1,7.7E1,1.8E1,3E1],"tree_param":{"num_deleted":"0","num_feature":"4","num_nodes":"15","size_leaf_vector":"1"}},{"base_weights":[4.870619E-3,-1.8882754E-1,1.3801044E-1,-7.0755996E-2,-7.4770373E-1,-1.8960185E-2,3.062844E-1,-9.513352E-3,1.6030153E-2,-5.3997755E-2,-2.522192E-2,3.5027245E-3,-9.818896E-3,1.782196E-2,-1.10505195E-2],"categories":[],"categories_nodes":[],"categories_segments":[],"categories_sizes":[],"default_left":[0,0,0,0,0,0,0,0,0,0,0,0,0,0,0],"id":34,"left_children":[1,3,5,7,9,11,13,-1,-1,-1,-1,-1,-1,-1,-1],"loss_changes":[7.659586E0,7.9315686E0,4.654683E0,4.7849445E0,1.1525583E0,1.466693E0,2.3267179E0,0E0,0E0,0E0,0E0,0E0,0E0,0E0,0E0],"parents":[2147483647,0,0,1,1,2,2,3,3,4,4,5,5,6,6],"right_children":[2,4,6,8,10,12,14,-1,-1,-1,-1,-1,-1,-1,-1],"split_conditions":[1.4E1,9E0,9E0,8E0,2.58E1,1.8E1,2.85E1,-9.513352E-3,1.6030153E-2,-5.3997755E-2,-2.522192E-2,3.5027245E-3,-9.818896E-3,1.782196E-2,-1.10505195E-2],"split_indices":[3,1,1,1,0,3,0,0,0,0,0,0,0,0,0],"split_type":[0,0,0,0,0,0,0,0,0,0,0,0,0,0,0],"sum_hessian":[2.95E2,1.2E2,1.75E2,1E2,2E1,9.1E1,8.4E1,7.7E1,2.3E1,7E0,1.3E1,6.1E1,3E1,7.7E1,7E0],"tree_param":{"num_deleted":"0","num_feature":"4","num_nodes":"15","size_leaf_vector":"1"}},{"base_weights":[1.7646909E-2,-2.0030423E-1,1.483271E-1,-3.4139746E-1,-1.0408329E-1,-2.0762576E-1,2.3299722E-1,-9.802502E-3,-2.2090055E-2,2.437002E-2,-6.414576E-3,5.762826E-3,-2.682871E-2,-3.8014352E-4,1.6443936E-2],"categories":[],"categories_nodes":[],"categories_segments":[],"categories_sizes":[],"default_left":[0,0,0,0,0,0,0,0,0,0,0,0,0,0,0],"id":35,"left_children":[1,3,5,7,9,11,13,-1,-1,-1,-1,-1,-1,-1,-1],"loss_changes":[8.88758E0,1.5528722E0,5.9253993E0,5.9927607E-1,1.0791622E0,4.097885E0,3.647417E0,0E0,0E0,0E0,0E0,0E0,0E0,0E0,0E0],"parents":[2147483647,0,0,1,1,2,2,3,3,4,4,5,5,6,6],"right_children":[2,4,6,8,10,12,14,-1,-1,-1,-1,-1,-1,-1,-1],"split_conditions":[8E0,1E0,1.3E1,1.2E1,7E0,9E0,1E0,-9.802502E-3,-2.2090055E-2,2.437002E-2,-6.414576E-3,5.762826E-3,-2.682871E-2,-3.8014352E-4,1.6443936E-2],"split_indices":[1,2,3,3,3,1,2,0,0,0,0,0,0,0,0],"split_type":[0,0,0,0,0,0,0,0,0,0,0,0,0,0,0],"sum_hessian":[3.1E2,1.16E2,1.94E2,4.6E1,7E1,3.7E1,1.57E2,2E1,2.6E1,2E0,6.8E1,1.9E1,1.8E1,4.5E1,1.12E2],"tree_param":{"num_deleted":"0","num_feature":"4","num_nodes":"15","size_leaf_vector":"1"}},{"base_weights":[-7.0577315E-3,-1.01157285E-1,1.839782E-1,-4.144463E-1,-4.778747E-2,-4.2980253E-3,3.5141444E-1,-1.1732192E-2,-4.3978628E-2,-4.042325E-3,1.8901343E-2,7.999388E-3,-8.420594E-3,2.6327759E-2,1.3673735E-3],"categories":[],"categories_nodes":[],"categories_segments":[],"categories_sizes":[],"default_left":[0,0,0,0,0,0,0,0,0,0,0,0,0,0,0],"id":36,"left_children":[1,3,5,7,9,11,13,-1,-1,-1,-1,-1,-1,-1,-1],"loss_changes":[5.555341E0,3.4412713E0,3.216985E0,2.3025393E0,2.5362697E0,1.3480608E0,3.0504956E0,0E0,0E0,0E0,0E0,0E0,0E0,0E0,0E0],"parents":[2147483647,0,0,1,1,2,2,3,3,4,4,5,5,6,6],"right_children":[2,4,6,8,10,12,14,-1,-1,-1,-1,-1,-1,-1,-1],"split_conditions":[2E0,1E1,9E0,9E0,2.5E1,1.5E1,2.74E1,-1.1732192E-2,-4.3978628E-2,-4.042325E-3,1.8901343E-2,7.999388E-3,-8.420594E-3,2.6327759E-2,1.3673735E-3],"split_indices":[2,3,1,1,3,3,0,0,0,0,0,0,0,0,0],"split_type":[0,0,0,0,0,0,0,0,0,0,0,0,0,0,0],"sum_hessian":[3.07E2,2.06E2,1.01E2,2.9E1,1.77E2,4.8E1,5.3E1,2.2E1,7E0,1.65E2,1.2E1,2.4E1,2.4E1,3.4E1,1.9E1],"tree_param":{"num_deleted":"0","num_feature":"4","num_nodes":"15","size_leaf_vector":"1"}},{"base_weights":[1.9972863E-2,-4.6720494E-2,3.5697117E-1,-9.5216565E-2,2.2804506E-1,1.2760524E-1,5.265727E-1,-2.223367E-3,-2.3608679E-2,-7.9225417E-4,2.5673194E-2,-1.502897E-4,1.488501E-2,6.05067E-3,3.2505687E-2],"categories":[],"categories_nodes":[],"categories_segments":[],"categories_sizes":[],"default_left":[0,0,0,0,0,0,0,0,0,0,0,0,0,0,0],"id":37,"left_children":[1,3,5,7,9,11,13,-1,-1,-1,-1,-1,-1,-1,-1],"loss_changes":[6.939147E0,3.4595768E0,1.916748E0,4.187664E0,2.7229583E0,5.118692E-1,1.374321E0,0E0,0E0,0E0,0E0,0E0,0E0,0E0,0E0],"parents":[2147483647,0,0,1,1,2,2,3,3,4,4,5,5,6,6],"right_children":[2,4,6,8,10,12,14,-1,-1,-1,-1,-1,-1,-1,-1],"split_conditions":[3E0,2.2E1,1E1,1.2E1,1.1E1,4E0,2.62E1,-2.223367E-3,-2.3608679E-2,-7.9225417E-4,2.5673194E-2,-1.502897E-4,1.488501E-2,6.05067E-3,3.2505687E-2],"split_indices":[2,3,1,1,1,2,0,0,0,0,0,0,0,0,0],"split_type":[0,0,0,0,0,0,0,0,0,0,0,0,0,0,0],"sum_hessian":[3.07E2,2.57E2,5E1,2.19E2,3.8E1,2.2E1,2.8E1,1.94E2,2.5E1,2.1E1,1.7E1,1.3E1,9E0,7E0,2.1E1],"tree_param":{"num_deleted":"0","num_feature":"4","num_nodes":"15","size_leaf_vector":"1"}},{"base_weights":[1.2928817E-2,-1.9013967E-1,1.3343339E-1,-1.740831E-1,-3.6310248E-2,-7.614595E-2,2.2029066E-1,-9.403386E-3,8.140066E-3,-1.6669808E-2,1.6187996E-3,-3.6702294E-2,1.2000623E-2],"categories":[],"categories_nodes":[],"categories_segments":[],"categories_sizes":[],"default_left":[0,0,0,0,0,0,0,0,0,0,0,0,0],"id":38,"left_children":[1,3,5,7,-1,9,11,-1,-1,-1,-1,-1,-1],"loss_changes":[7.4889283E0,8.5482025E-1,3.511844E0,5.582721E-1,0E0,1.6020796E0,2.735867E0,0E0,0E0,0E0,0E0,0E0,0E0],"parents":[2147483647,0,0,1,1,2,2,3,3,5,5,6,6],"right_children":[2,4,6,8,-1,10,12,-1,-1,-1,-1,-1,-1],"split_conditions":[8E0,2.97E1,1E0,4E0,-3.6310248E-2,1.3E1,9E0,-9.403386E-3,8.140066E-3,-1.6669808E-2,1.6187996E-3,-3.6702294E-2,1.2000623E-2],"split_indices":[1,0,2,2,0,3,3,0,0,0,0,0,0],"split_type":[0,0,0,0,0,0,0,0,0,0,0,0,0],"sum_hessian":[3.04E2,1.13E2,1.91E2,1.11E2,2E0,5.6E1,1.35E2,1.07E2,4E0,1.6E1,4E1,2E0,1.33E2],"tree_param":{"num_deleted":"0","num_feature":"4","num_nodes":"13","size_leaf_vector":"1"}},{"base_weights":[-3.2446927E-3,-7.341461E-2,3.462391E-1,-2.1534227E-1,2.4972843E-2,4.2708072E-1,-1.21459484E-1,-1.3476754E-2,-3.3181557E-3,-2.3084803E-2,2.8380754E-3,1.1106158E-2,2.7878348E-2,-3.393606E-2,8.870731E-3],"categories":[],"categories_nodes":[],"categories_segments":[],"categories_sizes":[],"default_left":[0,0,0,0,0,0,0,0,0,0,0,0,0,0,0],"id":39,"left_children":[1,3,5,7,9,11,13,-1,-1,-1,-1,-1,-1,-1,-1],"loss_changes":[7.1862073E0,3.4125698E0,1.9045391E0,7.894726E-1,2.269437E0,9.994054E-1,1.4528239E0,0E0,0E0,0E0,0E0,0E0,0E0,0E0,0E0],"parents":[2147483647,0,0,1,1,2,2,3,3,4,4,5,5,6,6],"right_children":[2,4,6,8,10,12,14,-1,-1,-1,-1,-1,-1,-1,-1],"split_conditions":[3E0,8E0,2.8E1,2.79E1,2.5E1,1E1,1.6E1,-1.3476754E-2,-3.3181557E-3,-2.3084803E-2,2.8380754E-3,1.1106158E-2,2.7878348E-2,-3.393606E-2,8.870731E-3],"split_indices":[2,1,0,0,0,1,3,0,0,0,0,0,0,0,0],"split_type":[0,0,0,0,0,0,0,0,0,0,0,0,0,0,0],"sum_hessian":[2.91E2,2.43E2,4.8E1,9.9E1,1.44E2,4.1E1,7E0,7.2E1,2.7E1,8E0,1.36E2,1.7E1,2.4E1,2E0,5E0],"tree_param":{"num_deleted":"0","num_feature":"4","num_nodes":"15","size_leaf_vector":"1"}},{"base_weights":[-2.0900182E-2,-6.0321383E-2,4.4645485E-1,-1.854351E-1,1.8666223E-2,5.1695514E-1,-3.5285473E-2,-1.6025294E-2,-5.0265333E-3,4.651734E-3,-1.173266E-2,-3.6108017E-3,2.91387E-2,-7.7437162E-3,2.8101127E-3],"categories":[],"categories_nodes":[],"categories_segments":[],"categories_sizes":[],"default_left":[0,0,0,0,0,0,0,0,0,0,0,0,0,0,0],"id":40,"left_children":[1,3,5,7,9,11,13,-1,-1,-1,-1,-1,-1,-1,-1],"loss_changes":[5.6830053E0,2.8100724E0,8.3334875E-1,1.2292712E0,3.318652E0,8.564358E-1,5.2467935E-2,0E0,0E0,0E0,0E0,0E0,0E0,0E0,0E0],"parents":[2147483647,0,0,1,1,2,2,3,3,4,4,5,5,6,6],"right_children":[2,4,6,8,10,12,14,-1,-1,-1,-1,-1,-1,-1,-1],"split_conditions":[1.3E1,8E0,2.79E1,1E0,1.2E1,2.51E1,2.95E1,-1.6025294E-2,-5.0265333E-3,4.651734E-3,-1.173266E-2,-3.6108017E-3,2.91387E-2,-7.7437162E-3,2.8101127E-3],"split_indices":[1,1,0,2,1,0,0,0,0,0,0,0,0,0,0],"split_type":[0,0,0,0,0,0,0,0,0,0,0,0,0,0,0],"sum_hessian":[3.06E2,2.83E2,2.3E1,1.09E2,1.74E2,2E1,3E0,4.1E1,6.8E1,1.35E2,3.9E1,2E0,1.8E1,1E0,2E0],"tree_param":{"num_deleted":"0","num_feature":"4","num_nodes":"15","size_leaf_vector":"1"}},{"base_weights":[-1.1145507E-2,-1.4212029E-1,7.285571E-2,-5.9573464E-2,-2.0160119E-1,-1.1202268E-1,1.7012027E-1,-5.5884714E-3,8.019365E-3,-1.1069964E-2,1.4727883E-2,-1.5599734E-2,9.5184374E-4,-6.982261E-4,1.2667661E-2],"categories":[],"categories_nodes":[],"categories_segments":[],"categories_sizes":[],"default_left":[0,0,0,0,0,0,0,0,0,0,0,0,0,0,0],"id":41,"left_children":[1,3,5,7,9,11,13,-1,-1,-1,-1,-1,-1,-1,-1],"loss_changes":[3.2669582E0,5.575452E-1,3.2738204E0,5.9197956E-1,7.2335553E-1,1.6570587E0,1.8268466E0,0E0,0E0,0E0,0E0,0E0,0E0,0E0,0E0],"parents":[2147483647,0,0,1,1,2,2,3,3,4,4,5,5,6,6],"right_children":[2,4,6,8,10,12,14,-1,-1,-1,-1,-1,-1,-1,-1],"split_conditions":[8E0,1.2E1,1E0,2.81E1,4E0,2.64E1,2.62E1,-5.5884714E-3,8.019365E-3,-1.1069964E-2,1.4727883E-2,-1.5599734E-2,9.5184374E-4,-6.982261E-4,1.2667661E-2],"split_indices":[1,3,2,0,2,0,0,0,0,0,0,0,0,0,0],"split_type":[0,0,0,0,0,0,0,0,0,0,0,0,0,0,0],"sum_hessian":[2.95E2,1.15E2,1.8E2,4.9E1,6.6E1,6.2E1,1.18E2,4E1,9E0,6.4E1,2E0,2.4E1,3.8E1,3.7E1,8.1E1],"tree_param":{"num_deleted":"0","num_feature":"4","num_nodes":"15","size_leaf_vector":"1"}},{"base_weights":[2.4353275E-2,-6.780454E-2,2.2224905E-1,-1.6796261E-1,1.5952207E-2,2.5567433E-2,3.961824E-1,-2.3347707E-3,-2.2744237E-2,-2.4132947E-3,1.4164969E-2,1.17474925E-2,-7.2993697E-3,2.4357196E-2,-8.818448E-3],"categories":[],"categories_nodes":[],"categories_segments":[],"categories_sizes":[],"default_left":[0,0,0,0,0,0,0,0,0,0,0,0,0,0,0],"id":42,"left_children":[1,3,5,7,9,11,13,-1,-1,-1,-1,-1,-1,-1,-1],"loss_changes":[5.7416887E0,1.8062959E0,3.41082E0,3.3885942E0,2.0395598E0,1.7584867E0,2.8461628E0,0E0,0E0,0E0,0E0,0E0,0E0,0E0,0E0],"parents":[2147483647,0,0,1,1,2,2,3,3,4,4,5,5,6,6],"right_children":[2,4,6,8,10,12,14,-1,-1,-1,-1,-1,-1,-1,-1],"split_conditions":[2E0,2.65E1,9E0,9E0,1.9E1,1.5E1,2.8E1,-2.3347707E-3,-2.2744237E-2,-2.4132947E-3,1.4164969E-2,1.17474925E-2,-7.2993697E-3,2.4357196E-2,-8.818448E-3],"split_indices":[2,0,1,1,3,3,0,0,0,0,0,0,0,0,0],"split_type":[0,0,0,0,0,0,0,0,0,0,0,0,0,0,0],"sum_hessian":[3.13E2,2.14E2,9.9E1,9.7E1,1.17E2,4.7E1,5.2E1,6.9E1,2.8E1,9.5E1,2.2E1,2.1E1,2.6E1,4.5E1,7E0],"tree_param":{"num_deleted":"0","num_feature":"4","num_nodes":"15","size_leaf_vector":"1"}},{"base_weights":[-3.2594875E-2,-6.267005E-2,4.3132865E-1,-1.7610577E-1,4.8688767E-3,2.3598004E-2,5.384836E-1,-9.825764E-3,1.4385748E-2,-1.3638616E-3,1.155388E-2,-1.0119975E-2,6.534863E-3,3.290734E-2,8.376398E-3],"categories":[],"categories_nodes":[],"categories_segments":[],"categories_sizes":[],"default_left":[0,0,0,0,0,0,0,0,0,0,0,0,0,0,0],"id":43,"left_children":[1,3,5,7,9,11,13,-1,-1,-1,-1,-1,-1,-1,-1],"loss_changes":[4.3523326E0,2.2379646E0,8.1741E-1,1.0883725E0,1.3443015E0,1.4747386E-1,5.555873E-1,0E0,0E0,0E0,0E0,0E0,0E0,0E0,0E0],"parents":[2147483647,0,0,1,1,2,2,3,3,4,4,5,5,6,6],"right_children":[2,4,6,8,10,12,14,-1,-1,-1,-1,-1,-1,-1,-1],"split_conditions":[1.3E1,1E0,2.59E1,2.4E1,4E0,2.4E1,2.5E1,-9.825764E-3,1.4385748E-2,-1.3638616E-3,1.155388E-2,-1.0119975E-2,6.534863E-3,3.290734E-2,8.376398E-3],"split_indices":[1,2,0,3,2,0,3,0,0,0,0,0,0,0,0],"split_type":[0,0,0,0,0,0,0,0,0,0,0,0,0,0,0],"sum_hessian":[3.09E2,2.91E2,1.8E1,1.08E2,1.83E2,4E0,1.4E1,1.04E2,4E0,1.61E2,2.2E1,1E0,3E0,1E1,4E0],"tree_param":{"num_deleted":"0","num_feature":"4","num_nodes":"15","size_leaf_vector":"1"}},{"base_weights":[1.4455263E-2,-1.4028941E-1,9.788454E-2,-4.429069E-1,-9.469634E-2,-6.817527E-2,1.8080442E-1,-3.281741E-3,-4.054013E-2,-3.5235067E-3,-2.6075974E-2,2.46991E-2,-4.634746E-3,-4.9804794E-3,1.137965E-2],"categories":[],"categories_nodes":[],"categories_segments":[],"categories_sizes":[],"default_left":[0,0,0,0,0,0,0,0,0,0,0,0,0,0,0],"id":44,"left_children":[1,3,5,7,9,11,13,-1,-1,-1,-1,-1,-1,-1,-1],"loss_changes":[4.0159054E0,1.4619596E0,2.793797E0,1.8899376E0,9.5591813E-1,9.8309445E-1,1.7938943E0,0E0,0E0,0E0,0E0,0E0,0E0,0E0,0E0],"parents":[2147483647,0,0,1,1,2,2,3,3,4,4,5,5,6,6],"right_children":[2,4,6,8,10,12,14,-1,-1,-1,-1,-1,-1,-1,-1],"split_conditions":[1E0,2.5E1,8E0,2.45E1,2.96E1,7E0,2.53E1,-3.281741E-3,-4.054013E-2,-3.5235067E-3,-2.6075974E-2,2.46991E-2,-4.634746E-3,-4.9804794E-3,1.137965E-2],"split_indices":[2,0,1,0,0,3,0,0,0,0,0,0,0,0,0],"split_type":[0,0,0,0,0,0,0,0,0,0,0,0,0,0,0],"sum_hessian":[3.09E2,1.08E2,2.01E2,1.3E1,9.5E1,6.7E1,1.34E2,7E0,6E0,9.1E1,4E0,2E0,6.5E1,1.9E1,1.15E2],"tree_param":{"num_deleted":"0","num_feature":"4","num_nodes":"15","size_leaf_vector":"1"}},{"base_weights":[1.6038043E-2,-1.0518942E-2,3.6658552E-1,2.1272361E-2,-2.1648511E-1,5.6249833E-1,7.52403E-2,3.8461923E-4,5.751865E-2,-3.3838496E-2,1.7905608E-2,3.0820375E-2,-2.1102906E-3,-7.0427777E-3,1.21390065E-2],"categories":[],"categories_nodes":[],"categories_segments":[],"categories_sizes":[],"default_left":[0,0,0,0,0,0,0,0,0,0,0,0,0,0,0],"id":45,"left_children":[1,3,5,7,9,11,13,-1,-1,-1,-1,-1,-1,-1,-1],"loss_changes":[2.9084153E0,1.9100537E0,1.2133992E0,3.8704402E0,1.0557016E1,4.4980383E-1,3.9624354E-1,0E0,0E0,0E0,0E0,0E0,0E0,0E0,0E0],"parents":[2147483647,0,0,1,1,2,2,3,3,4,4,5,5,6,6],"right_children":[2,4,6,8,10,12,14,-1,-1,-1,-1,-1,-1,-1,-1],"split_conditions":[1.3E1,1.2E1,2.5E1,1.1E1,1.7E1,5E0,2.8E1,3.8461923E-4,5.751865E-2,-3.3838496E-2,1.7905608E-2,3.0820375E-2,-2.1102906E-3,-7.0427777E-3,1.21390065E-2],"split_indices":[1,1,3,1,3,2,3,0,0,0,0,0,0,0,0],"split_type":[0,0,0,0,0,0,0,0,0,0,0,0,0,0,0],"sum_hessian":[3.11E2,2.9E2,2.1E1,2.52E2,3.8E1,1.2E1,9E0,2.5E2,2E0,2.1E1,1.7E1,1.1E1,1E0,4E0,5E0],"tree_param":{"num_deleted":"0","num_feature":"4","num_nodes":"15","size_leaf_vector":"1"}},{"base_weights":[7.3515833E-3,-1.2070177E-1,8.217584E-2,-1.0512604E-1,-3.3098083E-2,-7.8652166E-2,1.6890778E-1,-8.593551E-3,2.6524912E-3,4.7826977E-3,-2.4081055E-2,1.0449088E-2,-8.473686E-3],"categories":[],"categories_nodes":[],"categories_segments":[],"categories_sizes":[],"default_left":[0,0,0,0,0,0,0,0,0,0,0,0,0],"id":46,"left_children":[1,3,5,7,-1,9,11,-1,-1,-1,-1,-1,-1],"loss_changes":[2.9610198E0,8.9148915E-1,2.7333252E0,1.1915514E0,0E0,4.8926253E0,1.7575736E0,0E0,0E0,0E0,0E0,0E0,0E0],"parents":[2147483647,0,0,1,1,2,2,3,3,5,5,6,6],"right_children":[2,4,6,8,-1,10,12,-1,-1,-1,-1,-1,-1],"split_conditions":[8E0,2.97E1,1.5E1,2.79E1,-3.3098083E-2,1.1E1,2.85E1,-8.593551E-3,2.6524912E-3,4.7826977E-3,-2.4081055E-2,1.0449088E-2,-8.473686E-3],"split_indices":[1,0,3,0,0,1,0,0,0,0,0,0,0],"split_type":[0,0,0,0,0,0,0,0,0,0,0,0,0],"sum_hessian":[3.07E2,1.13E2,1.94E2,1.11E2,2E0,6.8E1,1.26E2,7.8E1,3.3E1,4.8E1,2E1,1.13E2,1.3E1],"tree_param":{"num_deleted":"0","num_feature":"4","num_nodes":"13","size_leaf_vector":"1"}},{"base_weights":[1.2099455E-2,-1.2179418E-1,9.130962E-2,-1.0746854E-1,-3.1994816E-2,-2.793403E-1,1.270726E-1,7.1856203E-3,-6.4865476E-3,-3.383801E-2,5.3135823E-3,7.837606E-3,-8.68528E-3],"categories":[],"categories_nodes":[],"categories_segments":[],"categories_sizes":[],"default_left":[0,0,0,0,0,0,0,0,0,0,0,0,0],"id":47,"left_children":[1,3,5,7,-1,9,11,-1,-1,-1,-1,-1,-1],"loss_changes":[3.3943512E0,8.1446695E-1,2.6998618E0,6.7289543E-1,0E0,2.830418E0,1.6697869E0,0E0,0E0,0E0,0E0,0E0,0E0],"parents":[2147483647,0,0,1,1,2,2,3,3,5,5,6,6],"right_children":[2,4,6,8,-1,10,12,-1,-1,-1,-1,-1,-1],"split_conditions":[8E0,2.97E1,2.5E1,2.44E1,-3.1994816E-2,2E0,2.87E1,7.1856203E-3,-6.4865476E-3,-3.383801E-2,5.3135823E-3,7.837606E-3,-8.68528E-3],"split_indices":[1,0,0,0,0,2,0,0,0,0,0,0,0],"split_type":[0,0,0,0,0,0,0,0,0,0,0,0,0],"sum_hessian":[3.18E2,1.18E2,2E2,1.16E2,2E0,1.7E1,1.83E2,9E0,1.07E2,8E0,9E0,1.67E2,1.6E1],"tree_param":{"num_deleted":"0","num_feature":"4","num_nodes":"13","size_leaf_vector":"1"}},{"base_weights":[-5.7673655E-3,-3.814067E-2,3.829526E-1,-6.120658E-2,3.3315748E-1,-7.114581E-3,5.133702E-1,-3.5239966E-3,2.8886396E-2,2.8929293E-2,5.1749507E-3,-1.15689915E-2,6.443374E-3,5.0156277E-2,1.2391965E-2],"categories":[],"categories_nodes":[],"categories_segments":[],"categories_sizes":[],"default_left":[0,0,0,0,0,0,0,0,0,0,0,0,0,0,0],"id":48,"left_children":[1,3,5,7,9,11,13,-1,-1,-1,-1,-1,-1,-1,-1],"loss_changes":[3.9282765E0,2.4869184E0,1.224572E0,1.6523354E0,8.983172E-1,2.432897E-1,2.0921993E0,0E0,0E0,0E0,0E0,0E0,0E0,0E0,0E0],"parents":[2147483647,0,0,1,1,2,2,3,3,4,4,5,5,6,6],"right_children":[2,4,6,8,10,12,14,-1,-1,-1,-1,-1,-1,-1,-1],"split_conditions":[4E0,1.3E1,2.65E1,2.9E1,2.3E1,2.43E1,2.7E1,-3.5239966E-3,2.8886396E-2,2.8929293E-2,5.1749507E-3,-1.15689915E-2,6.443374E-3,5.0156277E-2,1.2391965E-2],"split_indices":[2,1,0,3,3,0,0,0,0,0,0,0,0,0,0],"split_type":[0,0,0,0,0,0,0,0,0,0,0,0,0,0,0],"sum_hessian":[3.1E2,2.87E2,2.3E1,2.71E2,1.6E1,6E0,1.7E1,2.68E2,3E0,7E0,9E0,2E0,4E0,5E0,1.2E1],"tree_param":{"num_deleted":"0","num_feature":"4","num_nodes":"15","size_leaf_vector":"1"}},{"base_weights":[8.071899E-3,-1.373543E-1,8.735666E-2,-4.762412E-1,-8.514771E-2,-2.1011238E-1,1.1994657E-1,3.6562413E-3,-3.0983824E-2,1.6505395E-3,-1.2799292E-2,-2.4211237E-3,-4.425944E-2,-1.8794559E-3,8.921933E-3],"categories":[],"categories_nodes":[],"categories_segments":[],"categories_sizes":[],"default_left":[0,0,0,0,0,0,0,0,0,0,0,0,0,0,0],"id":49,"left_children":[1,3,5,7,9,11,13,-1,-1,-1,-1,-1,-1,-1,-1],"loss_changes":[3.7246845E0,1.9763515E0,2.05135E0,1.2272906E0,2.0270476E0,2.2493513E0,1.7482655E0,0E0,0E0,0E0,0E0,0E0,0E0,0E0,0E0],"parents":[2147483647,0,0,1,1,2,2,3,3,4,4,5,5,6,6],"right_children":[2,4,6,8,10,12,14,-1,-1,-1,-1,-1,-1,-1,-1],"split_conditions":[1E0,2.5E1,1E1,2.44E1,2.71E1,9E0,8E0,3.6562413E-3,-3.0983824E-2,1.6505395E-3,-1.2799292E-2,-2.4211237E-3,-4.425944E-2,-1.8794559E-3,8.921933E-3],"split_indices":[2,0,3,0,0,1,1,0,0,0,0,0,0,0,0],"split_type":[0,0,0,0,0,0,0,0,0,0,0,0,0,0,0],"sum_hessian":[3.21E2,1.13E2,2.08E2,1.4E1,9.9E1,2E1,1.88E2,3E0,1.1E1,5.9E1,4E1,1.7E1,3E0,5.1E1,1.37E2],"tree_param":{"num_deleted":"0","num_feature":"4","num_nodes":"15","size_leaf_vector":"1"}},{"base_weights":[5.220384E-3,-1.9865371E-2,2.9767E-1,-1.2145531E-1,3.9031424E-2,3.7663516E-1,-1.9979875E-3,-8.089651E-3,1.3493237E-2,3.8378164E-3,-8.290379E-3,2.6401384E-2,9.378959E-3,-1.2852249E-2,1.6936533E-2],"categories":[],"categories_nodes":[],"categories_segments":[],"categories_sizes":[],"default_left":[0,0,0,0,0,0,0,0,0,0,0,0,0,0,0],"id":50,"left_children":[1,3,5,7,9,11,13,-1,-1,-1,-1,-1,-1,-1,-1],"loss_changes":[2.2288182E0,1.6800706E0,5.686722E-1,1.6695127E0,1.3882276E0,4.447646E-1,6.0847986E-1,0E0,0E0,0E0,0E0,0E0,0E0,0E0,0E0],"parents":[2147483647,0,0,1,1,2,2,3,3,4,4,5,5,6,6],"right_children":[2,4,6,8,10,12,14,-1,-1,-1,-1,-1,-1,-1,-1],"split_conditions":[1.3E1,1E0,1.4E1,2.2E1,2.83E1,2.7E1,1.5E1,-8.089651E-3,1.3493237E-2,3.8378164E-3,-8.290379E-3,2.6401384E-2,9.378959E-3,-1.2852249E-2,1.6936533E-2],"split_indices":[1,2,1,3,0,0,1,0,0,0,0,0,0,0,0],"split_type":[0,0,0,0,0,0,0,0,0,0,0,0,0,0,0],"sum_hessian":[3.02E2,2.79E2,2.3E1,1.02E2,1.77E2,1.8E1,5E0,9.3E1,9E0,1.5E2,2.7E1,9E0,9E0,3E0,2E0],"tree_param":{"num_deleted":"0","num_feature":"4","num_nodes":"15","size_leaf_vector":"1"}},{"base_weights":[-2.6205247E-2,-6.389416E-2,1.93124E-1,-3.478288E-2,-2.2351286E-1,2.6752537E-1,-1.0147347E-1,-5.583036E-3,1.6148863E-3,-3.552374E-2,1.6166044E-2,-1.4126134E-2,1.6218426E-2,-2.275875E-2,5.756894E-3],"categories":[],"categories_nodes":[],"categories_segments":[],"categories_sizes":[],"default_left":[0,0,0,0,0,0,0,0,0,0,0,0,0,0,0],"id":51,"left_children":[1,3,5,7,9,11,13,-1,-1,-1,-1,-1,-1,-1,-1],"loss_changes":[2.591419E0,1.2328959E0,1.0353957E0,1.1742481E0,1.1147485E1,1.2485006E0,8.1856555E-1,0E0,0E0,0E0,0E0,0E0,0E0,0E0,0E0],"parents":[2147483647,0,0,1,1,2,2,3,3,4,4,5,5,6,6],"right_children":[2,4,6,8,10,12,14,-1,-1,-1,-1,-1,-1,-1,-1],"split_conditions":[3E0,1.1E1,2.8E1,8E0,1.7E1,2.43E1,1.7E1,-5.583036E-3,1.6148863E-3,-3.552374E-2,1.6166044E-2,-1.4126134E-2,1.6218426E-2,-2.275875E-2,5.756894E-3],"split_indices":[2,1,0,1,3,0,3,0,0,0,0,0,0,0,0],"split_type":[0,0,0,0,0,0,0,0,0,0,0,0,0,0,0],"sum_hessian":[3.11E2,2.66E2,4.5E1,2.26E2,4E1,3.6E1,9E0,1.05E2,1.21E2,2.1E1,1.9E1,3E0,3.3E1,3E0,6E0],"tree_param":{"num_deleted":"0","num_feature":"4","num_nodes":"15","size_leaf_vector":"1"}},{"base_weights":[-8.10808E-3,-4.3237504E-2,3.842606E-1,-6.393736E-2,2.2802247E-1,-1.0903341E-2,4.184437E-1,-1.1233524E-3,-1.847789E-2,2.6228873E-2,-6.697824E-4,3.163333E-2,1.1011844E-2],"categories":[],"categories_nodes":[],"categories_segments":[],"categories_sizes":[],"default_left":[0,0,0,0,0,0,0,0,0,0,0,0,0],"id":52,"left_children":[1,3,5,7,9,-1,11,-1,-1,-1,-1,-1,-1],"loss_changes":[4.1930714E0,1.5811758E0,6.059842E-1,3.286982E0,1.438902E0,0E0,8.79714E-1,0E0,0E0,0E0,0E0,0E0,0E0],"parents":[2147483647,0,0,1,1,2,2,3,3,4,4,6,6],"right_children":[2,4,6,8,10,-1,12,-1,-1,-1,-1,-1,-1],"split_conditions":[4E0,1.3E1,2.33E1,1.2E1,2.3E1,-1.0903341E-2,2.7E1,-1.1233524E-3,-1.847789E-2,2.6228873E-2,-6.697824E-4,3.163333E-2,1.1011844E-2],"split_indices":[2,1,0,1,3,0,0,0,0,0,0,0,0],"split_type":[0,0,0,0,0,0,0,0,0,0,0,0,0],"sum_hessian":[3.02E2,2.78E2,2.4E1,2.59E2,1.9E1,1E0,2.3E1,2.29E2,3E1,8E0,1.1E1,1E1,1.3E1],"tree_param":{"num_deleted":"0","num_feature":"4","num_nodes":"13","size_leaf_vector":"1"}},{"base_weights":[2.5762944E-3,-1.11589804E-1,7.362572E-2,-1.707927E-2,-1.8639112E-1,-2.304415E-1,1.03791E-1,-3.6461875E-3,8.447544E-3,-2.978535E-2,-6.094361E-3,6.8693906E-3,-3.0676806E-2,-4.8296773E-3,7.320805E-3],"categories":[],"categories_nodes":[],"categories_segments":[],"categories_sizes":[],"default_left":[0,0,0,0,0,0,0,0,0,0,0,0,0,0,0],"id":53,"left_children":[1,3,5,7,9,11,13,-1,-1,-1,-1,-1,-1,-1,-1],"loss_changes":[2.579541E0,8.592973E-1,1.8216827E0,5.83702E-1,1.722759E0,2.6207342E0,1.5430553E0,0E0,0E0,0E0,0E0,0E0,0E0,0E0,0E0],"parents":[2147483647,0,0,1,1,2,2,3,3,4,4,5,5,6,6],"right_children":[2,4,6,8,10,12,14,-1,-1,-1,-1,-1,-1,-1,-1],"split_conditions":[8E0,1.2E1,2.5E1,1.1E1,2.51E1,9E0,1.3E1,-3.6461875E-3,8.447544E-3,-2.978535E-2,-6.094361E-3,6.8693906E-3,-3.0676806E-2,-4.8296773E-3,7.320805E-3],"split_indices":[1,3,0,3,0,1,3,0,0,0,0,0,0,0,0],"split_type":[0,0,0,0,0,0,0,0,0,0,0,0,0,0,0],"sum_hessian":[3.16E2,1.21E2,1.95E2,5.4E1,6.7E1,1.7E1,1.78E2,4.2E1,1.2E1,8E0,5.9E1,9E0,8E0,3.1E1,1.47E2],"tree_param":{"num_deleted":"0","num_feature":"4","num_nodes":"15","size_leaf_vector":"1"}},{"base_weights":[1.6588992E-2,-8.816725E-2,7.464576E-2,-7.102559E-2,-3.7630877E-1,-6.643186E-2,1.7123163E-1,-5.335883E-3,2.7684446E-3,-2.50801E-2,-4.190743E-3,-1.5740227E-2,1.6851471E-4,2.1005688E-2,2.4642767E-3],"categories":[],"categories_nodes":[],"categories_segments":[],"categories_sizes":[],"default_left":[0,0,0,0,0,0,0,0,0,0,0,0,0,0,0],"id":54,"left_children":[1,3,5,7,9,11,13,-1,-1,-1,-1,-1,-1,-1,-1],"loss_changes":[1.891942E0,5.2152634E-1,2.736596E0,4.841045E-1,1.7784333E-1,1.4226905E0,3.5909681E0,0E0,0E0,0E0,0E0,0E0,0E0,0E0,0E0],"parents":[2147483647,0,0,1,1,2,2,3,3,4,4,5,5,6,6],"right_children":[2,4,6,8,10,12,14,-1,-1,-1,-1,-1,-1,-1,-1],"split_conditions":[8E0,1.9E1,2.65E1,2E0,2.2E1,1.3E1,2.71E1,-5.335883E-3,2.7684446E-3,-2.50801E-2,-4.190743E-3,-1.5740227E-2,1.6851471E-4,2.1005688E-2,2.4642767E-3],"split_indices":[1,3,0,2,3,3,0,0,0,0,0,0,0,0,0],"split_type":[0,0,0,0,0,0,0,0,0,0,0,0,0,0,0],"sum_hessian":[3.09E2,1.1E2,1.99E2,1.05E2,5E0,8.1E1,1.18E2,8.2E1,2.3E1,3E0,2E0,1.7E1,6.4E1,3.8E1,8E1],"tree_param":{"num_deleted":"0","num_feature":"4","num_nodes":"15","size_leaf_vector":"1"}},{"base_weights":[-2.437644E-2,-4.4218827E-2,2.0359549E-1,-1.6614685E-2,-2.3545273E-1,-6.054746E-3,3.026106E-1,-1.4933606E-3,5.4444164E-2,-3.356133E-2,7.336382E-3,-6.8849274E-3,1.5156619E-2,2.0341078E-2,-1.4429999E-3],"categories":[],"categories_nodes":[],"categories_segments":[],"categories_sizes":[],"default_left":[0,0,0,0,0,0,0,0,0,0,0,0,0,0,0],"id":55,"left_children":[1,3,5,7,9,11,13,-1,-1,-1,-1,-1,-1,-1,-1],"loss_changes":[1.4112898E0,1.5058385E0,5.207958E-1,3.7098327E0,6.094078E0,4.0806398E-1,5.9896934E-1,0E0,0E0,0E0,0E0,0E0,0E0,0E0,0E0],"parents":[2147483647,0,0,1,1,2,2,3,3,4,4,5,5,6,6],"right_children":[2,4,6,8,10,12,14,-1,-1,-1,-1,-1,-1,-1,-1],"split_conditions":[1.3E1,1.2E1,2.62E1,1.1E1,1.5E1,1.5E1,2.79E1,-1.4933606E-3,5.4444164E-2,-3.356133E-2,7.336382E-3,-6.8849274E-3,1.5156619E-2,2.0341078E-2,-1.4429999E-3],"split_indices":[1,1,0,1,3,1,0,0,0,0,0,0,0,0,0],"split_type":[0,0,0,0,0,0,0,0,0,0,0,0,0,0,0],"sum_hessian":[3.09E2,2.85E2,2.4E1,2.5E2,3.5E1,8E0,1.6E1,2.48E2,2E0,1.6E1,1.9E1,6E0,2E0,1.2E1,4E0],"tree_param":{"num_deleted":"0","num_feature":"4","num_nodes":"15","size_leaf_vector":"1"}},{"base_weights":[2.4088506E-2,-9.471214E-2,9.465445E-2,-1.1964755E-1,1.8904856E-1,-1.9339798E-2,1.5222554E-1,-2.849829E-3,-1.3873394E-2,-6.4513716E-3,1.7189967E-2,3.916484E-3,-7.2832727E-3,-2.2110699E-2,8.4672505E-3],"categories":[],"categories_nodes":[],"categories_segments":[],"categories_sizes":[],"default_left":[0,0,0,0,0,0,0,0,0,0,0,0,0,0,0],"id":56,"left_children":[1,3,5,7,9,11,13,-1,-1,-1,-1,-1,-1,-1,-1],"loss_changes":[2.6748478E0,8.6462605E-1,1.3154982E0,1.0718209E0,5.3658456E-1,8.5040486E-1,1.4283605E0,0E0,0E0,0E0,0E0,0E0,0E0,0E0,0E0],"parents":[2147483647,0,0,1,1,2,2,3,3,4,4,5,5,6,6],"right_children":[2,4,6,8,10,12,14,-1,-1,-1,-1,-1,-1,-1,-1],"split_conditions":[1E0,2.4E1,8E0,9E0,2.62E1,2.65E1,2.41E1,-2.849829E-3,-1.3873394E-2,-6.4513716E-3,1.7189967E-2,3.916484E-3,-7.2832727E-3,-2.2110699E-2,8.4672505E-3],"split_indices":[2,3,1,1,0,0,0,0,0,0,0,0,0,0,0],"split_type":[0,0,0,0,0,0,0,0,0,0,0,0,0,0,0],"sum_hessian":[3.17E2,1.18E2,1.99E2,1.09E2,9E0,6.7E1,1.32E2,7.9E1,3E1,3E0,6E0,3.8E1,2.9E1,3E0,1.29E2],"tree_param":{"num_deleted":"0","num_feature":"4","num_nodes":"15","size_leaf_vector":"1"}},{"base_weights":[2.5335656E-2,5.8289724E-3,3.3170024E-1,-4.711328E-3,2.4749072E-2,4.2155367E-1,-8.817512E-2,1.2761287E-3,-9.856477E-3,2.3585841E-2,3.1831027E-3,3.2288076E-3,-1.3660723E-2],"categories":[],"categories_nodes":[],"categories_segments":[],"categories_sizes":[],"default_left":[0,0,0,0,0,0,0,0,0,0,0,0,0],"id":57,"left_children":[1,3,5,7,-1,9,11,-1,-1,-1,-1,-1,-1],"loss_changes":[1.7968898E0,1.4665833E0,7.1626055E-1,1.6281286E0,0E0,2.3926425E-1,1.307031E-1,0E0,0E0,0E0,0E0,0E0,0E0],"parents":[2147483647,0,0,1,1,2,2,3,3,5,5,6,6],"right_children":[2,4,6,8,-1,10,12,-1,-1,-1,-1,-1,-1],"split_conditions":[1.3E1,5E0,2.5E1,1.2E1,2.4749072E-2,5E0,2.59E1,1.2761287E-3,-9.856477E-3,2.3585841E-2,3.1831027E-3,3.2288076E-3,-1.3660723E-2],"split_indices":[1,2,3,1,0,2,0,0,0,0,0,0,0],"split_type":[0,0,0,0,0,0,0,0,0,0,0,0,0],"sum_hessian":[3E2,2.83E2,1.7E1,2.78E2,5E0,1.4E1,3E0,2.41E2,3.7E1,1.2E1,2E0,2E0,1E0],"tree_param":{"num_deleted":"0","num_feature":"4","num_nodes":"13","size_leaf_vector":"1"}},{"base_weights":[7.173061E-3,-8.800144E-2,6.265416E-2,-7.374036E-2,-2.9078683E-2,-2.023774E-2,7.731619E-2,6.241511E-3,-4.633536E-3,-1.4420323E-3,6.384806E-3],"categories":[],"categories_nodes":[],"categories_segments":[],"categories_sizes":[],"default_left":[0,0,0,0,0,0,0,0,0,0,0],"id":58,"left_children":[1,3,5,7,-1,-1,9,-1,-1,-1,-1],"loss_changes":[1.6054705E0,7.454681E-1,1.3471017E0,4.2505932E-1,0E0,0E0,1.0037912E0,0E0,0E0,0E0,0E0],"parents":[2147483647,0,0,1,1,2,2,3,3,6,6],"right_children":[2,4,6,8,-1,-1,10,-1,-1,-1,-1],"split_conditions":[8E0,2.97E1,2.43E1,2.44E1,-2.9078683E-2,-2.023774E-2,1E0,6.241511E-3,-4.633536E-3,-1.4420323E-3,6.384806E-3],"split_indices":[1,0,0,0,0,0,2,0,0,0,0],"split_type":[0,0,0,0,0,0,0,0,0,0,0],"sum_hessian":[3.02E2,1.11E2,1.91E2,1.09E2,2E0,5E0,1.86E2,9E0,1E2,6E1,1.26E2],"tree_param":{"num_deleted":"0","num_feature":"4","num_nodes":"11","size_leaf_vector":"1"}},{"base_weights":[-1.5996506E-2,-3.263653E-2,2.1376365E-1,-3.9963037E-2,3.9150152E-1,2.6781526E-1,-8.2909465E-2,-5.098743E-3,2.877252E-4,2.5805354E-2,-2.673018E-3,2.0792106E-2,3.6791868E-3,-1.5224322E-2,1.4545537E-2],"categories":[],"categories_nodes":[],"categories_segments":[],"categories_sizes":[],"default_left":[0,0,0,0,0,0,0,0,0,0,0,0,0,0,0],"id":59,"left_children":[1,3,5,7,9,11,13,-1,-1,-1,-1,-1,-1,-1,-1],"loss_changes":[1.1883498E0,9.136983E-1,3.5895324E-1,8.0856985E-1,3.0481482E-1,4.8692727E-1,4.1989812E-1,0E0,0E0,0E0,0E0,0E0,0E0,0E0,0E0],"parents":[2147483647,0,0,1,1,2,2,3,3,4,4,5,5,6,6],"right_children":[2,4,6,8,10,12,14,-1,-1,-1,-1,-1,-1,-1,-1],"split_conditions":[1.3E1,2.9E1,1.4E1,2.64E1,2E0,2.7E1,1.5E1,-5.098743E-3,2.877252E-4,2.5805354E-2,-2.673018E-3,2.0792106E-2,3.6791868E-3,-1.5224322E-2,1.4545537E-2],"split_indices":[1,3,1,0,2,0,1,0,0,0,0,0,0,0,0],"split_type":[0,0,0,0,0,0,0,0,0,0,0,0,0,0,0],"sum_hessian":[3.08E2,2.88E2,2E1,2.84E2,4E0,1.7E1,3E0,1.2E2,1.64E2,3E0,1E0,9E0,8E0,2E0,1E0],"tree_param":{"num_deleted":"0","num_feature":"4","num_nodes":"15","size_leaf_vector":"1"}},{"base_weights":[2.957401E-4,-1.0443419E-1,6.793228E-2,5.980899E-3,-1.8969698E-1,-1.1515753E-1,1.8121558E-1,9.285255E-3,-2.4246706E-3,-8.108796E-3,-3.0162543E-2,-1.1025553E-2,2.796295E-3,2.0620307E-2,3.1677557E-3],"categories":[],"categories_nodes":[],"categories_segments":[],"categories_sizes":[],"default_left":[0,0,0,0,0,0,0,0,0,0,0,0,0,0,0],"id":60,"left_children":[1,3,5,7,9,11,13,-1,-1,-1,-1,-1,-1,-1,-1],"loss_changes":[2.2384188E0,1.1685076E0,4.003144E0,5.474748E-1,6.9886875E-1,1.3461261E0,3.2164114E0,0E0,0E0,0E0,0E0,0E0,0E0,0E0,0E0],"parents":[2147483647,0,0,1,1,2,2,3,3,4,4,5,5,6,6],"right_children":[2,4,6,8,10,12,14,-1,-1,-1,-1,-1,-1,-1,-1],"split_conditions":[8E0,1.2E1,2.65E1,2.5E1,2.89E1,2E0,2.71E1,9.285255E-3,-2.4246706E-3,-8.108796E-3,-3.0162543E-2,-1.1025553E-2,2.796295E-3,2.0620307E-2,3.1677557E-3],"split_indices":[1,3,0,0,0,2,0,0,0,0,0,0,0,0,0],"split_type":[0,0,0,0,0,0,0,0,0,0,0,0,0,0,0],"sum_hessian":[3.14E2,1.23E2,1.91E2,5.4E1,6.9E1,7.3E1,1.18E2,1.2E1,4.2E1,6.6E1,3E0,4.5E1,2.8E1,3.9E1,7.9E1],"tree_param":{"num_deleted":"0","num_feature":"4","num_nodes":"15","size_leaf_vector":"1"}},{"base_weights":[-1.0333847E-2,-3.6165718E-2,1.3168874E-1,-4.672737E-2,3.6581716E-1,1.9106694E-1,-1.189929E-1,-5.1360144E-3,-1.9306183E-4,2.1845888E-2,-1.5196562E-3,6.8936124E-4,1.4844164E-2,-2.0899337E-2,7.5000385E-3],"categories":[],"categories_nodes":[],"categories_segments":[],"categories_sizes":[],"default_left":[0,0,0,0,0,0,0,0,0,0,0,0,0,0,0],"id":61,"left_children":[1,3,5,7,9,11,13,-1,-1,-1,-1,-1,-1,-1,-1],"loss_changes":[1.1677434E0,1.1591611E0,7.521018E-1,6.3085586E-1,2.1047467E-1,7.462704E-1,8.669728E-1,0E0,0E0,0E0,0E0,0E0,0E0,0E0,0E0],"parents":[2147483647,0,0,1,1,2,2,3,3,4,4,5,5,6,6],"right_children":[2,4,6,8,10,12,14,-1,-1,-1,-1,-1,-1,-1,-1],"split_conditions":[3E0,2.8E1,2.8E1,1.4E1,2.76E1,2.64E1,1.7E1,-5.1360144E-3,-1.9306183E-4,2.1845888E-2,-1.5196562E-3,6.8936124E-4,1.4844164E-2,-2.0899337E-2,7.5000385E-3],"split_indices":[2,3,0,3,0,0,3,0,0,0,0,0,0,0,0],"split_type":[0,0,0,0,0,0,0,0,0,0,0,0,0,0,0],"sum_hessian":[3.16E2,2.68E2,4.8E1,2.62E2,6E0,3.9E1,9E0,1.13E2,1.49E2,5E0,1E0,1.5E1,2.4E1,4E0,5E0],"tree_param":{"num_deleted":"0","num_feature":"4","num_nodes":"15","size_leaf_vector":"1"}},{"base_weights":[2.6889203E-2,-6.1777722E-2,8.022157E-2,-9.064142E-2,2.6478708E-1,5.8147427E-2,2.9895896E-1,2.196492E-2,-4.972634E-3,-3.233832E-3,1.5429023E-2,4.743721E-3,-8.814651E-3,2.2347739E-2,5.0650756E-3],"categories":[],"categories_nodes":[],"categories_segments":[],"categories_sizes":[],"default_left":[0,0,0,0,0,0,0,0,0,0,0,0,0,0,0],"id":62,"left_children":[1,3,5,7,9,11,13,-1,-1,-1,-1,-1,-1,-1,-1],"loss_changes":[1.5087199E0,1.1551046E0,9.4347596E-1,5.6199676E-1,1.6424125E-1,1.5837985E0,4.812672E-1,0E0,0E0,0E0,0E0,0E0,0E0,0E0,0E0],"parents":[2147483647,0,0,1,1,2,2,3,3,4,4,5,5,6,6],"right_children":[2,4,6,8,10,12,14,-1,-1,-1,-1,-1,-1,-1,-1],"split_conditions":[1E0,2.4E1,1.3E1,5E0,8E0,1.2E1,2.5E1,2.196492E-2,-4.972634E-3,-3.233832E-3,1.5429023E-2,4.743721E-3,-8.814651E-3,2.2347739E-2,5.0650756E-3],"split_indices":[2,3,1,3,1,1,3,0,0,0,0,0,0,0,0],"split_type":[0,0,0,0,0,0,0,0,0,0,0,0,0,0,0],"sum_hessian":[3.17E2,1.19E2,1.98E2,1.1E2,9E0,1.81E2,1.7E1,1E0,1.09E2,1E0,8E0,1.57E2,2.4E1,9E0,8E0],"tree_param":{"num_deleted":"0","num_feature":"4","num_nodes":"15","size_leaf_vector":"1"}},{"base_weights":[1.7777828E-2,5.303751E-2,-2.689707E-1,-4.0409185E-2,1.0804884E-1,-1.7984727E-1,-4.3896994E-1,5.4901866E-3,-3.0712057E-3,-3.791444E-3,7.744726E-3,-5.84586E-3,-1.9779904E-2,-2.8716436E-2,-2.9254945E-3],"categories":[],"categories_nodes":[],"categories_segments":[],"categories_sizes":[],"default_left":[0,0,0,0,0,0,0,0,0,0,0,0,0,0,0],"id":63,"left_children":[1,3,5,7,9,11,13,-1,-1,-1,-1,-1,-1,-1,-1],"loss_changes":[3.13846E0,1.4231794E0,4.3618345E-1,3.3188617E-1,1.51056E0,2.796008E-1,5.32881E-1,0E0,0E0,0E0,0E0,0E0,0E0,0E0,0E0],"parents":[2147483647,0,0,1,1,2,2,3,3,4,4,5,5,6,6],"right_children":[2,4,6,8,10,12,14,-1,-1,-1,-1,-1,-1,-1,-1],"split_conditions":[2.85E1,8E0,9E0,2.44E1,1.3E1,2.1E1,2.6E1,5.4901866E-3,-3.0712057E-3,-3.791444E-3,7.744726E-3,-5.84586E-3,-1.9779904E-2,-2.8716436E-2,-2.9254945E-3],"split_indices":[0,1,1,0,3,3,3,0,0,0,0,0,0,0,0],"split_type":[0,0,0,0,0,0,0,0,0,0,0,0,0,0,0],"sum_hessian":[3.08E2,2.75E2,3.3E1,1.02E2,1.73E2,2.3E1,1E1,1.2E1,9E1,3.5E1,1.38E2,1.9E1,4E0,7E0,3E0],"tree_param":{"num_deleted":"0","num_feature":"4","num_nodes":"15","size_leaf_vector":"1"}},{"base_weights":[-1.0349178E-2,-9.958343E-2,4.2786837E-2,-9.717356E-3,-1.7244779E-1,1.5834837E-1,-5.1770583E-2,-4.853222E-3,5.42169E-3,-2.5359273E-2,-5.778562E-3,1.823919E-2,-3.3086033E-3,-1.41601255E-2,2.919503E-3],"categories":[],"categories_nodes":[],"categories_segments":[],"categories_sizes":[],"default_left":[0,0,0,0,0,0,0,0,0,0,0,0,0,0,0],"id":64,"left_children":[1,3,5,7,9,11,13,-1,-1,-1,-1,-1,-1,-1,-1],"loss_changes":[1.4741423E0,7.578962E-1,2.1390016E0,5.5749345E-1,1.159862E0,4.102848E0,2.7699623E0,0E0,0E0,0E0,0E0,0E0,0E0,0E0,0E0],"parents":[2147483647,0,0,1,1,2,2,3,3,4,4,5,5,6,6],"right_children":[2,4,6,8,10,12,14,-1,-1,-1,-1,-1,-1,-1,-1],"split_conditions":[8E0,1.2E1,9E0,1E1,2.51E1,1.6E1,1.5E1,-4.853222E-3,5.42169E-3,-2.5359273E-2,-5.778562E-3,1.823919E-2,-3.3086033E-3,-1.41601255E-2,2.919503E-3],"split_indices":[1,3,1,3,0,3,3,0,0,0,0,0,0,0,0],"split_type":[0,0,0,0,0,0,0,0,0,0,0,0,0,0,0],"sum_hessian":[3.09E2,1.15E2,1.94E2,5.2E1,6.3E1,8.7E1,1.07E2,3E1,2.2E1,8E0,5.5E1,4.5E1,4.2E1,3.4E1,7.3E1],"tree_param":{"num_deleted":"0","num_feature":"4","num_nodes":"15","size_leaf_vector":"1"}},{"base_weights":[3.3253442E-2,5.6389548E-2,-1.5985402E-1,1.6331246E-2,1.3417688E-1,-3.1808022E-1,-2.6525253E-2,-2.273152E-3,7.4613504E-3,8.7961147E-4,1.2645677E-2,-2.9655164E-2,-8.207667E-3,8.8866595E-3,-3.7966017E-3],"categories":[],"categories_nodes":[],"categories_segments":[],"categories_sizes":[],"default_left":[0,0,0,0,0,0,0,0,0,0,0,0,0,0,0],"id":65,"left_children":[1,3,5,7,9,11,13,-1,-1,-1,-1,-1,-1,-1,-1],"loss_changes":[1.376147E0,8.5160047E-1,6.8773425E-1,1.5014045E0,1.2829376E0,5.3764164E-1,2.0523892E-1,0E0,0E0,0E0,0E0,0E0,0E0,0E0,0E0],"parents":[2147483647,0,0,1,1,2,2,3,3,4,4,5,5,6,6],"right_children":[2,4,6,8,10,12,14,-1,-1,-1,-1,-1,-1,-1,-1],"split_conditions":[2.85E1,2E0,2.9E1,2.74E1,1E1,1.2E1,1.1E1,-2.273152E-3,7.4613504E-3,8.7961147E-4,1.2645677E-2,-2.9655164E-2,-8.207667E-3,8.8866595E-3,-3.7966017E-3],"split_indices":[0,2,0,0,1,3,3,0,0,0,0,0,0,0,0],"split_type":[0,0,0,0,0,0,0,0,0,0,0,0,0,0,0],"sum_hessian":[3.05E2,2.73E2,3.2E1,1.81E2,9.2E1,1.4E1,1.8E1,1.24E2,5.7E1,4.7E1,4.5E1,4E0,1E1,3E0,1.5E1],"tree_param":{"num_deleted":"0","num_feature":"4","num_nodes":"15","size_leaf_vector":"1"}},{"base_weights":[-2.0345904E-2,-1.0766375E-1,2.9526997E-2,1.6230655E-1,-1.2684225E-1,-6.152124E-2,8.9480154E-2,-8.325617E-3,2.6637677E-2,-2.1372996E-2,-5.2375747E-3,2.2180816E-3,-1.068342E-2,1.2253665E-2,4.809217E-4],"categories":[],"categories_nodes":[],"categories_segments":[],"categories_sizes":[],"default_left":[0,0,0,0,0,0,0,0,0,0,0,0,0,0,0],"id":66,"left_children":[1,3,5,7,9,11,13,-1,-1,-1,-1,-1,-1,-1,-1],"loss_changes":[1.3662295E0,6.108365E-1,1.0972307E0,1.0631897E0,6.6579616E-1,1.2982609E0,1.5011811E0,0E0,0E0,0E0,0E0,0E0,0E0,0E0,0E0],"parents":[2147483647,0,0,1,1,2,2,3,3,4,4,5,5,6,6],"right_children":[2,4,6,8,10,12,14,-1,-1,-1,-1,-1,-1,-1,-1],"split_conditions":[8E0,2.44E1,2.65E1,2.37E1,2.47E1,2.59E1,2.71E1,-8.325617E-3,2.6637677E-2,-2.1372996E-2,-5.2375747E-3,2.2180816E-3,-1.068342E-2,1.2253665E-2,4.809217E-4],"split_indices":[1,0,0,0,0,0,0,0,0,0,0,0,0,0,0],"split_type":[0,0,0,0,0,0,0,0,0,0,0,0,0,0,0],"sum_hessian":[3.12E2,1.13E2,1.99E2,7E0,1.06E2,7.9E1,1.2E2,4E0,3E0,6E0,1E2,4.7E1,3.2E1,4E1,8E1],"tree_param":{"num_deleted":"0","num_feature":"4","num_nodes":"15","size_leaf_vector":"1"}},{"base_weights":[9.1474075E-3,3.6592714E-2,-1.7908162E-1,1.6184129E-2,3.441705E-1,-5.0284445E-1,-1.3924019E-1,-1.1899733E-3,7.8798225E-3,2.3055932E-2,1.0809748E-2,-6.4726654E-3,-4.0575445E-2,1.200262E-2,-8.988378E-3],"categories":[],"categories_nodes":[],"categories_segments":[],"categories_sizes":[],"default_left":[0,0,0,0,0,0,0,0,0,0,0,0,0,0,0],"id":67,"left_children":[1,3,5,7,9,11,13,-1,-1,-1,-1,-1,-1,-1,-1],"loss_changes":[1.6235121E0,1.7143903E0,4.4595063E-1,1.4625273E0,1.5473914E-1,3.5595787E-1,6.119074E-1,0E0,0E0,0E0,0E0,0E0,0E0,0E0,0E0],"parents":[2147483647,0,0,1,1,2,2,3,3,4,4,5,5,6,6],"right_children":[2,4,6,8,10,12,14,-1,-1,-1,-1,-1,-1,-1,-1],"split_conditions":[2.84E1,2.81E1,1E1,2E1,1E0,2.86E1,1.1E1,-1.1899733E-3,7.8798225E-3,2.3055932E-2,1.0809748E-2,-6.4726654E-3,-4.0575445E-2,1.200262E-2,-8.988378E-3],"split_indices":[0,0,3,3,2,0,3,0,0,0,0,0,0,0,0],"split_type":[0,0,0,0,0,0,0,0,0,0,0,0,0,0,0],"sum_hessian":[3.12E2,2.73E2,3.9E1,2.57E2,1.6E1,3E0,3.6E1,2.01E2,5.6E1,7E0,9E0,2E0,1E0,3E0,3.3E1],"tree_param":{"num_deleted":"0","num_feature":"4","num_nodes":"15","size_leaf_vector":"1"}},{"base_weights":[-1.5058981E-2,-3.2393966E-2,1.935883E-1,2.0326663E-2,-3.6884833E-2,3.452486E-1,-5.3260993E-2,-2.433619E-3,7.066132E-3,6.2066424E-3,3.813268E-2,-3.0798206E-2,8.220515E-3],"categories":[],"categories_nodes":[],"categories_segments":[],"categories_sizes":[],"default_left":[0,0,0,0,0,0,0,0,0,0,0,0,0],"id":68,"left_children":[1,3,5,-1,7,9,11,-1,-1,-1,-1,-1,-1],"loss_changes":[1.1311262E0,5.826899E-1,9.16882E-1,0E0,6.076583E-1,1.2897519E0,1.3261139E0,0E0,0E0,0E0,0E0,0E0,0E0],"parents":[2147483647,0,0,1,1,2,2,4,4,5,5,6,6],"right_children":[2,4,6,-1,8,10,12,-1,-1,-1,-1,-1,-1],"split_conditions":[4E0,5E0,2.7E1,2.0326663E-2,1.3E1,2.67E1,1.3E1,-2.433619E-3,7.066132E-3,6.2066424E-3,3.813268E-2,-3.0798206E-2,8.220515E-3],"split_indices":[2,3,0,0,1,0,3,0,0,0,0,0,0],"split_type":[0,0,0,0,0,0,0,0,0,0,0,0,0],"sum_hessian":[3.1E2,2.87E2,2.3E1,2E0,2.85E2,1.4E1,9E0,2.68E2,1.7E1,1E1,4E0,2E0,7E0],"tree_param":{"num_deleted":"0","num_feature":"4","num_nodes":"13","size_leaf_vector":"1"}},{"base_weights":[-3.763097E-3,1.8683229E-2,-1.9246562E-1,-5.2745487E-3,2.5846386E-1,-8.0631845E-2,-4.528035E-1,-5.674616E-4,2.6046563E-2,1.6042428E-2,3.8996115E-3,1.0244386E-2,-7.238654E-3,-3.4477457E-2,-1.2641703E-2],"categories":[],"categories_nodes":[],"categories_segments":[],"categories_sizes":[],"default_left":[0,0,0,0,0,0,0,0,0,0,0,0,0,0,0],"id":69,"left_children":[1,3,5,7,9,11,13,-1,-1,-1,-1,-1,-1,-1,-1],"loss_changes":[1.3547773E0,1.644322E0,9.533849E-1,8.402074E-1,2.6770175E-1,4.875017E-1,2.990775E-1,0E0,0E0,0E0,0E0,0E0,0E0,0E0,0E0],"parents":[2147483647,0,0,1,1,2,2,3,3,4,4,5,5,6,6],"right_children":[2,4,6,8,10,12,14,-1,-1,-1,-1,-1,-1,-1,-1],"split_conditions":[2.85E1,2.81E1,9E0,6E0,2.84E1,1.1E1,1.1E1,-5.674616E-4,2.6046563E-2,1.6042428E-2,3.8996115E-3,1.0244386E-2,-7.238654E-3,-3.4477457E-2,-1.2641703E-2],"split_indices":[0,0,1,2,0,3,1,0,0,0,0,0,0,0,0],"split_type":[0,0,0,0,0,0,0,0,0,0,0,0,0,0,0],"sum_hessian":[3.18E2,2.85E2,3.3E1,2.6E2,2.5E1,2.4E1,9E0,2.58E2,2E0,1.8E1,7E0,4E0,2E1,3E0,6E0],"tree_param":{"num_deleted":"0","num_feature":"4","num_nodes":"15","size_leaf_vector":"1"}},{"base_weights":[-1.1327924E-2,-1.9254965E-1,2.1600729E-2,-4.9931854E-3,-2.8616145E-1,4.7624737E-2,-1.6909456E-1,4.3875426E-3,-2.1806715E-2,-3.7667762E-2,-5.5608726E-3,9.30713E-4,6.7961584E-3,-3.365433E-2,-5.452817E-3],"categories":[],"categories_nodes":[],"categories_segments":[],"categories_sizes":[],"default_left":[0,0,0,0,0,0,0,0,0,0,0,0,0,0,0],"id":70,"left_children":[1,3,5,7,9,11,13,-1,-1,-1,-1,-1,-1,-1,-1],"loss_changes":[1.7466363E0,7.886585E-1,1.2387918E0,6.780434E-1,2.368196E0,5.584557E-1,8.343594E-1,0E0,0E0,0E0,0E0,0E0,0E0,0E0,0E0],"parents":[2147483647,0,0,1,1,2,2,3,3,4,4,5,5,6,6],"right_children":[2,4,6,8,10,12,14,-1,-1,-1,-1,-1,-1,-1,-1],"split_conditions":[2.53E1,1.2E1,2.85E1,8E0,1.4E1,2E1,1E1,4.3875426E-3,-2.1806715E-2,-3.7667762E-2,-5.5608726E-3,9.30713E-4,6.7961584E-3,-3.365433E-2,-5.452817E-3],"split_indices":[0,3,0,1,3,3,3,0,0,0,0,0,0,0,0],"split_type":[0,0,0,0,0,0,0,0,0,0,0,0,0,0,0],"sum_hessian":[2.91E2,4.4E1,2.47E2,1.5E1,2.9E1,2.18E2,2.9E1,1.3E1,2E0,7E0,2.2E1,1.65E2,5.3E1,2E0,2.7E1],"tree_param":{"num_deleted":"0","num_feature":"4","num_nodes":"15","size_leaf_vector":"1"}},{"base_weights":[1.6777016E-3,-8.5127056E-2,5.171474E-2,-1.9768874E-1,-1.974198E-3,-3.3977416E-1,6.3742064E-2,-5.728855E-3,-2.9946243E-2,7.4251937E-3,-4.2958027E-3,-6.313113E-3,-2.0748226E-2,-2.1273363E-3,5.697166E-3],"categories":[],"categories_nodes":[],"categories_segments":[],"categories_sizes":[],"default_left":[0,0,0,0,0,0,0,0,0,0,0,0,0,0,0],"id":71,"left_children":[1,3,5,7,9,11,13,-1,-1,-1,-1,-1,-1,-1,-1],"loss_changes":[1.3421859E0,1.05727E0,9.445364E-1,1.5320522E0,8.4643173E-1,4.3929815E-2,1.0239915E0,0E0,0E0,0E0,0E0,0E0,0E0,0E0,0E0],"parents":[2147483647,0,0,1,1,2,2,3,3,4,4,5,5,6,6],"right_children":[2,4,6,8,10,12,14,-1,-1,-1,-1,-1,-1,-1,-1],"split_conditions":[1E0,2.65E1,2.41E1,1.1E1,2.71E1,8E0,8E0,-5.728855E-3,-2.9946243E-2,7.4251937E-3,-4.2958027E-3,-6.313113E-3,-2.0748226E-2,-2.1273363E-3,5.697166E-3],"split_indices":[2,0,0,1,0,1,1,0,0,0,0,0,0,0,0],"split_type":[0,0,0,0,0,0,0,0,0,0,0,0,0,0,0],"sum_hessian":[3.07E2,1.12E2,1.95E2,4.7E1,6.5E1,5E0,1.9E2,4E1,7E0,2.3E1,4.2E1,2E0,3E0,6.1E1,1.29E2],"tree_param":{"num_deleted":"0","num_feature":"4","num_nodes":"15","size_leaf_vector":"1"}},{"base_weights":[7.2660227E-3,-6.875571E-4,2.742292E-1,1.9548697E-2,-4.588876E-3,3.2916564E-1,-4.1315556E-3,-2.8349112E-3,1.3076182E-3,1.9145621E-2,-1.1765481E-3],"categories":[],"categories_nodes":[],"categories_segments":[],"categories_sizes":[],"default_left":[0,0,0,0,0,0,0,0,0,0,0],"id":72,"left_children":[1,3,5,-1,7,9,-1,-1,-1,-1,-1],"loss_changes":[6.6053885E-1,4.6477708E-1,2.03641E-1,0E0,4.836565E-1,1.606608E-1,0E0,0E0,0E0,0E0,0E0],"parents":[2147483647,0,0,1,1,2,2,4,4,5,5],"right_children":[2,4,6,-1,8,10,-1,-1,-1,-1,-1],"split_conditions":[2.9E1,5E0,4E0,1.9548697E-2,1E0,2.78E1,-4.1315556E-3,-2.8349112E-3,1.3076182E-3,1.9145621E-2,-1.1765481E-3],"split_indices":[3,3,2,0,2,0,0,0,0,0,0],"split_type":[0,0,0,0,0,0,0,0,0,0,0],"sum_hessian":[3.1E2,3.02E2,8E0,2E0,3E2,7E0,1E0,1.11E2,1.89E2,6E0,1E0],"tree_param":{"num_deleted":"0","num_feature":"4","num_nodes":"11","size_leaf_vector":"1"}},{"base_weights":[4.248742E-3,-6.37285E-4,2.481606E-2,-1.2555671E-2,1.7817205E-1,3.5079473E-4,-7.4060275E-3,1.7492352E-2,-5.6600693E-4],"categories":[],"categories_nodes":[],"categories_segments":[],"categories_sizes":[],"default_left":[0,0,0,0,0,0,0,0,0],"id":73,"left_children":[1,3,-1,5,7,-1,-1,-1,-1],"loss_changes":[7.336215E-1,6.47966E-1,0E0,7.57206E-1,6.220506E-1,0E0,0E0,0E0,0E0],"parents":[2147483647,0,0,1,1,3,3,4,4],"right_children":[2,4,-1,6,8,-1,-1,-1,-1],"split_conditions":[6E0,1.3E1,2.481606E-2,1.2E1,2.5E1,3.5079473E-4,-7.4060275E-3,1.7492352E-2,-5.6600693E-4],"split_indices":[2,1,0,1,3,0,0,0,0],"split_type":[0,0,0,0,0,0,0,0,0],"sum_hessian":[3.04E2,3.02E2,2E0,2.84E2,1.8E1,2.49E2,3.5E1,9E0,9E0],"tree_param":{"num_deleted":"0","num_feature":"4","num_nodes":"9","size_leaf_vector":"1"}},{"base_weights":[8.723709E-3,2.8215874E-2,-1.8435524E-1,-4.6242878E-2,8.749356E-2,-3.798082E-2,-1.3301381E-1,-5.762812E-3,4.9139145E-3,1.3519464E-3,1.5384293E-2,1.9256175E-2,-9.611937E-3],"categories":[],"categories_nodes":[],"categories_segments":[],"categories_sizes":[],"default_left":[0,0,0,0,0,0,0,0,0,0,0,0,0],"id":74,"left_children":[1,3,5,7,9,-1,11,-1,-1,-1,-1,-1,-1],"loss_changes":[1.1079152E0,1.1825153E0,6.9639826E-1,1.1982203E0,1.9751157E0,0E0,8.718882E-1,0E0,0E0,0E0,0E0,0E0,0E0],"parents":[2147483647,0,0,1,1,2,2,3,3,4,4,6,6],"right_children":[2,4,6,8,10,-1,12,-1,-1,-1,-1,-1,-1],"split_conditions":[2.85E1,2.63E1,1E1,2E0,1.1E1,-3.798082E-2,1.1E1,-5.762812E-3,4.9139145E-3,1.3519464E-3,1.5384293E-2,1.9256175E-2,-9.611937E-3],"split_indices":[0,0,3,2,1,0,3,0,0,0,0,0,0],"split_type":[0,0,0,0,0,0,0,0,0,0,0,0,0],"sum_hessian":[2.92E2,2.66E2,2.6E1,1.18E2,1.48E2,1E0,2.5E1,8E1,3.8E1,1.17E2,3.1E1,2E0,2.3E1],"tree_param":{"num_deleted":"0","num_feature":"4","num_nodes":"13","size_leaf_vector":"1"}},{"base_weights":[-1.6969765E-2,-1.771798E-1,3.482312E-3,-5.6681216E-2,-4.727581E-1,-2.8592142E-1,1.8933343E-2,-8.00513E-3,1.2345287E-2,-3.343646E-2,1.0370866E-2,-2.2282554E-2,1.1240775E-2,1.8936003E-4,1.062226E-2],"categories":[],"categories_nodes":[],"categories_segments":[],"categories_sizes":[],"default_left":[0,0,0,0,0,0,0,0,0,0,0,0,0,0,0],"id":75,"left_children":[1,3,5,7,9,11,13,-1,-1,-1,-1,-1,-1,-1,-1],"loss_changes":[1.0130949E0,1.2197903E0,1.2350996E0,8.5586214E-1,1.4716527E0,1.242307E0,7.671065E-1,0E0,0E0,0E0,0E0,0E0,0E0,0E0,0E0],"parents":[2147483647,0,0,1,1,2,2,3,3,4,4,5,5,6,6],"right_children":[2,4,6,8,10,12,14,-1,-1,-1,-1,-1,-1,-1,-1],"split_conditions":[2.5E1,9E0,8E0,2.48E1,2.1E1,2E0,1.3E1,-8.00513E-3,1.2345287E-2,-3.343646E-2,1.0370866E-2,-2.2282554E-2,1.1240775E-2,1.8936003E-4,1.062226E-2],"split_indices":[0,1,3,0,3,2,1,0,0,0,0,0,0,0,0],"split_type":[0,0,0,0,0,0,0,0,0,0,0,0,0,0,0],"sum_hessian":[3.08E2,3.4E1,2.74E2,2.5E1,9E0,1.3E1,2.61E2,1.9E1,6E0,7E0,2E0,1E1,3E0,2.43E2,1.8E1],"tree_param":{"num_deleted":"0","num_feature":"4","num_nodes":"15","size_leaf_vector":"1"}},{"base_weights":[-3.6754202E-2,-1.07736014E-1,1.6434749E-3,-1.3497737E-1,1.836236E-1,9.070565E-2,-3.9473634E-2,-4.9805236E-3,-2.2696424E-2,1.3038573E-2,-1.2767679E-2,-7.45154E-4,2.8359342E-2,-2.7169273E-3,1.2854648E-2],"categories":[],"categories_nodes":[],"categories_segments":[],"categories_sizes":[],"default_left":[0,0,0,0,0,0,0,0,0,0,0,0,0,0,0],"id":76,"left_children":[1,3,5,7,9,11,13,-1,-1,-1,-1,-1,-1,-1,-1],"loss_changes":[8.696233E-1,9.137325E-1,7.652721E-1,1.116656E0,4.0525043E-1,3.3296103E0,6.443763E-1,0E0,0E0,0E0,0E0,0E0,0E0,0E0,0E0],"parents":[2147483647,0,0,1,1,2,2,3,3,4,4,5,5,6,6],"right_children":[2,4,6,8,10,12,14,-1,-1,-1,-1,-1,-1,-1,-1],"split_conditions":[1E0,2.4E1,1.4E1,2E1,1.4E1,1.3E1,2.9E1,-4.9805236E-3,-2.2696424E-2,1.3038573E-2,-1.2767679E-2,-7.45154E-4,2.8359342E-2,-2.7169273E-3,1.2854648E-2],"split_indices":[2,3,3,3,1,3,3,0,0,0,0,0,0,0,0],"split_type":[0,0,0,0,0,0,0,0,0,0,0,0,0,0,0],"sum_hessian":[3.18E2,1.11E2,2.07E2,1.02E2,9E0,6.5E1,1.42E2,9.3E1,9E0,8E0,1E0,5.4E1,1.1E1,1.36E2,6E0],"tree_param":{"num_deleted":"0","num_feature":"4","num_nodes":"15","size_leaf_vector":"1"}},{"base_weights":[3.761444E-2,-3.769918E-2,7.509548E-2,4.1416883E-1,-5.926851E-2,1.4661396E-1,7.41064E-3,-3.0900717E-3,2.7430588E-2,-2.5775183E-2,-2.021321E-3,1.0819176E-3,1.54995015E-2,-3.3964228E-3,7.996237E-3],"categories":[],"categories_nodes":[],"categories_segments":[],"categories_sizes":[],"default_left":[0,0,0,0,0,0,0,0,0,0,0,0,0,0,0],"id":77,"left_children":[1,3,5,7,9,11,13,-1,-1,-1,-1,-1,-1,-1,-1],"loss_changes":[9.061376E-1,1.0674214E0,1.0348269E0,3.5385925E-1,8.645915E-1,2.1167667E0,1.2862839E0,0E0,0E0,0E0,0E0,0E0,0E0,0E0,0E0],"parents":[2147483647,0,0,1,1,2,2,3,3,4,4,5,5,6,6],"right_children":[2,4,6,8,10,12,14,-1,-1,-1,-1,-1,-1,-1,-1],"split_conditions":[1E0,2.45E1,1.6E1,2.37E1,2.47E1,8E0,1.1E1,-3.0900717E-3,2.7430588E-2,-2.5775183E-2,-2.021321E-3,1.0819176E-3,1.54995015E-2,-3.3964228E-3,7.996237E-3],"split_indices":[2,0,3,0,0,1,1,0,0,0,0,0,0,0,0],"split_type":[0,0,0,0,0,0,0,0,0,0,0,0,0,0,0],"sum_hessian":[3.19E2,1.06E2,2.13E2,4E0,1.02E2,1.03E2,1.1E2,1E0,3E0,3E0,9.9E1,5.9E1,4.4E1,7.4E1,3.6E1],"tree_param":{"num_deleted":"0","num_feature":"4","num_nodes":"15","size_leaf_vector":"1"}},{"base_weights":[2.4904687E-2,4.8380144E-2,-1.8563955E-1,-1.04432054E-1,7.486096E-2,-3.108844E-1,-9.6767046E-2,1.9801592E-3,-3.0247688E-2,-9.145229E-4,6.0625905E-3,-2.2926934E-2,-6.995577E-3,-2.2365432E-2,-1.4607293E-3],"categories":[],"categories_nodes":[],"categories_segments":[],"categories_sizes":[],"default_left":[0,0,0,0,0,0,0,0,0,0,0,0,0,0,0],"id":78,"left_children":[1,3,5,7,9,11,13,-1,-1,-1,-1,-1,-1,-1,-1],"loss_changes":[1.47694E0,1.0923046E0,3.0384135E-1,2.9076688E0,9.918122E-1,2.387836E-1,4.3685102E-1,0E0,0E0,0E0,0E0,0E0,0E0,0E0,0E0],"parents":[2147483647,0,0,1,1,2,2,3,3,4,4,5,5,6,6],"right_children":[2,4,6,8,10,12,14,-1,-1,-1,-1,-1,-1,-1,-1],"split_conditions":[2.85E1,2.5E1,1E0,9E0,8E0,8E0,1E1,1.9801592E-3,-3.0247688E-2,-9.145229E-4,6.0625905E-3,-2.2926934E-2,-6.995577E-3,-2.2365432E-2,-1.4607293E-3],"split_indices":[0,0,2,1,1,1,3,0,0,0,0,0,0,0,0],"split_type":[0,0,0,0,0,0,0,0,0,0,0,0,0,0,0],"sum_hessian":[2.96E2,2.67E2,2.9E1,3.9E1,2.28E2,1.1E1,1.8E1,3.1E1,8E0,7.6E1,1.52E2,5E0,6E0,2E0,1.6E1],"tree_param":{"num_deleted":"0","num_feature":"4","num_nodes":"15","size_leaf_vector":"1"}},{"base_weights":[2.815836E-3,-1.4847337E-1,2.2797568E-2,-5.7508484E-2,-4.2508543E-1,-5.401256E-2,6.380628E-2,2.6989693E-2,-4.9059535E-3,-1.0198182E-2,-3.2524835E-2,-2.028723E-3,-2.3301382E-2,6.1252634E-3,-5.811685E-4],"categories":[],"categories_nodes":[],"categories_segments":[],"categories_sizes":[],"default_left":[0,0,0,0,0,0,0,0,0,0,0,0,0,0,0],"id":79,"left_children":[1,3,5,7,9,11,13,-1,-1,-1,-1,-1,-1,-1,-1],"loss_changes":[9.586593E-1,9.065473E-1,8.85414E-1,7.564111E-1,3.159125E-1,5.2368784E-1,8.1168294E-1,0E0,0E0,0E0,0E0,0E0,0E0,0E0,0E0],"parents":[2147483647,0,0,1,1,2,2,3,3,4,4,5,5,6,6],"right_children":[2,4,6,8,10,12,14,-1,-1,-1,-1,-1,-1,-1,-1],"split_conditions":[1E1,9E0,8E0,2.42E1,1E0,2.97E1,2.71E1,2.6989693E-2,-4.9059535E-3,-1.0198182E-2,-3.2524835E-2,-2.028723E-3,-2.3301382E-2,6.1252634E-3,-5.811685E-4],"split_indices":[3,1,1,0,2,0,0,0,0,0,0,0,0,0,0],"split_type":[0,0,0,0,0,0,0,0,0,0,0,0,0,0,0],"sum_hessian":[3.15E2,3.6E1,2.79E2,2.8E1,8E0,9.7E1,1.82E2,1E0,2.7E1,5E0,3E0,9.5E1,2E0,1.02E2,8E1],"tree_param":{"num_deleted":"0","num_feature":"4","num_nodes":"15","size_leaf_vector":"1"}},{"base_weights":[-3.0228822E-3,-7.583665E-3,2.3311257E-2,1.9771894E-2,-1.1510074E-2,-1.0651987E-3,6.1210804E-3],"categories":[],"categories_nodes":[],"categories_segments":[],"categories_sizes":[],"default_left":[0,0,0,0,0,0,0],"id":80,"left_children":[1,3,-1,-1,5,-1,-1],"loss_changes":[6.669786E-1,4.919391E-1,0E0,0E0,4.0399235E-1,0E0,0E0],"parents":[2147483647,0,0,1,1,4,4],"right_children":[2,4,-1,-1,6,-1,-1],"split_conditions":[6E0,5E0,2.3311257E-2,1.9771894E-2,1.3E1,-1.0651987E-3,6.1210804E-3],"split_indices":[2,3,0,0,1,0,0],"split_type":[0,0,0,0,0,0,0],"sum_hessian":[3.09E2,3.07E2,2E0,2E0,3.05E2,2.85E2,2E1],"tree_param":{"num_deleted":"0","num_feature":"4","num_nodes":"7","size_leaf_vector":"1"}},{"base_weights":[1.640258E-2,-1.5852168E-1,2.724076E-2,1.9809568E-2,-2.1445724E-1,-1.6994406E-1,4.3325927E-2,8.341029E-3,-1.540377E-2,-1.814288E-2,7.451318E-3,3.0742453E-3,-3.7703242E-3],"categories":[],"categories_nodes":[],"categories_segments":[],"categories_sizes":[],"default_left":[0,0,0,0,0,0,0,0,0,0,0,0,0],"id":81,"left_children":[1,3,5,-1,7,9,11,-1,-1,-1,-1,-1,-1],"loss_changes":[5.844516E-1,6.434734E-1,9.2399913E-1,0E0,6.582002E-1,1.4078171E0,5.8246005E-1,0E0,0E0,0E0,0E0,0E0,0E0],"parents":[2147483647,0,0,1,1,2,2,4,4,5,5,6,6],"right_children":[2,4,6,-1,8,10,12,-1,-1,-1,-1,-1,-1],"split_conditions":[8E0,5E0,2.47E1,1.9809568E-2,2.45E1,2E0,2.84E1,8.341029E-3,-1.540377E-2,-1.814288E-2,7.451318E-3,3.0742453E-3,-3.7703242E-3],"split_indices":[3,3,0,0,0,2,0,0,0,0,0,0,0],"split_type":[0,0,0,0,0,0,0,0,0,0,0,0,0],"sum_hessian":[3.05E2,1.7E1,2.88E2,1E0,1.6E1,2.1E1,2.67E2,3E0,1.3E1,1.3E1,8E0,2.32E2,3.5E1],"tree_param":{"num_deleted":"0","num_feature":"4","num_nodes":"13","size_leaf_vector":"1"}},{"base_weights":[1.3832796E-3,-8.1748806E-2,6.103464E-2,-9.32808E-2,2.0339029E-2,1.0144782E-1,-9.77433E-2,-7.0523913E-3,6.753603E-4,3.0697507E-3,1.3841325E-2,-1.1818084E-2,1.5714028E-3],"categories":[],"categories_nodes":[],"categories_segments":[],"categories_sizes":[],"default_left":[0,0,0,0,0,0,0,0,0,0,0,0,0],"id":82,"left_children":[1,3,5,7,-1,9,11,-1,-1,-1,-1,-1,-1],"loss_changes":[1.4480416E0,7.2525835E-1,1.1007586E0,6.1401856E-1,0E0,9.3832374E-1,6.341218E-1,0E0,0E0,0E0,0E0,0E0,0E0],"parents":[2147483647,0,0,1,1,2,2,3,3,5,5,6,6],"right_children":[2,4,6,8,-1,10,12,-1,-1,-1,-1,-1,-1],"split_conditions":[2.65E1,3E1,2.85E1,2E0,2.0339029E-2,2.81E1,2.9E1,-7.0523913E-3,6.753603E-4,3.0697507E-3,1.3841325E-2,-1.1818084E-2,1.5714028E-3],"split_indices":[0,3,0,2,0,0,0,0,0,0,0,0,0],"split_type":[0,0,0,0,0,0,0,0,0,0,0,0,0],"sum_hessian":[2.9E2,1.21E2,1.69E2,1.19E2,2E0,1.35E2,3.4E1,8.2E1,3.7E1,1.11E2,2.4E1,1.6E1,1.8E1],"tree_param":{"num_deleted":"0","num_feature":"4","num_nodes":"13","size_leaf_vector":"1"}},{"base_weights":[-1.2097316E-2,-2.7777279E-2,1.5481679E-1,-3.9696272E-2,1.561472E-1,2.3111169E-1,-5.07148E-1,-7.3895283E-4,-9.716311E-3,1.5438655E-2,9.215879E-4,-1.0291624E-2,1.4009495E-2,-4.1040182E-2,3.0040802E-3],"categories":[],"categories_nodes":[],"categories_segments":[],"categories_sizes":[],"default_left":[0,0,0,0,0,0,0,0,0,0,0,0,0,0,0],"id":83,"left_children":[1,3,5,7,9,11,13,-1,-1,-1,-1,-1,-1,-1,-1],"loss_changes":[7.920797E-1,6.1124426E-1,1.430326E0,9.9889445E-1,3.5163078E-1,5.723388E-1,5.8305943E-1,0E0,0E0,0E0,0E0,0E0,0E0,0E0,0E0],"parents":[2147483647,0,0,1,1,2,2,3,3,4,4,5,5,6,6],"right_children":[2,4,6,8,10,12,14,-1,-1,-1,-1,-1,-1,-1,-1],"split_conditions":[4E0,1.3E1,2.8E1,1.2E1,2.3E1,2.43E1,2.81E1,-7.3895283E-4,-9.716311E-3,1.5438655E-2,9.215879E-4,-1.0291624E-2,1.4009495E-2,-4.1040182E-2,3.0040802E-3],"split_indices":[2,1,0,1,3,0,0,0,0,0,0,0,0,0,0],"split_type":[0,0,0,0,0,0,0,0,0,0,0,0,0,0,0],"sum_hessian":[3E2,2.75E2,2.5E1,2.59E2,1.6E1,2.3E1,2E0,2.24E2,3.5E1,7E0,9E0,2E0,2.1E1,1E0,1E0],"tree_param":{"num_deleted":"0","num_feature":"4","num_nodes":"15","size_leaf_vector":"1"}},{"base_weights":[2.401398E-2,4.452145E-2,-1.01907015E-1,2.6319718E-2,2.8263268E-1,-3.9206365E-1,-7.111351E-2,-4.133751E-3,2.830806E-3,2.1680346E-2,1.0673288E-2,-2.4056933E-3,-3.5597827E-2,1.6822267E-2,-5.607152E-3],"categories":[],"categories_nodes":[],"categories_segments":[],"categories_sizes":[],"default_left":[0,0,0,0,0,0,0,0,0,0,0,0,0,0,0],"id":84,"left_children":[1,3,5,7,9,11,13,-1,-1,-1,-1,-1,-1,-1,-1],"loss_changes":[8.102212E-1,1.1584172E0,3.6525625E-1,8.3351994E-1,1.0584581E-1,4.0585333E-1,7.233298E-1,0E0,0E0,0E0,0E0,0E0,0E0,0E0,0E0],"parents":[2147483647,0,0,1,1,2,2,3,3,4,4,5,5,6,6],"right_children":[2,4,6,8,10,12,14,-1,-1,-1,-1,-1,-1,-1,-1],"split_conditions":[2.84E1,2.81E1,1E1,2.53E1,1.2E1,2.86E1,1.1E1,-4.133751E-3,2.830806E-3,2.1680346E-2,1.0673288E-2,-2.4056933E-3,-3.5597827E-2,1.6822267E-2,-5.607152E-3],"split_indices":[0,0,3,0,3,0,3,0,0,0,0,0,0,0,0],"split_type":[0,0,0,0,0,0,0,0,0,0,0,0,0,0,0],"sum_hessian":[3.11E2,2.68E2,4.3E1,2.5E2,1.8E1,3E0,4E1,5.4E1,1.96E2,4E0,1.4E1,2E0,1E0,3E0,3.7E1],"tree_param":{"num_deleted":"0","num_feature":"4","num_nodes":"15","size_leaf_vector":"1"}},{"base_weights":[-2.4510747E-2,-3.834636E-2,1.5898195E-1,5.347713E-2,-7.1791835E-2,-9.418428E-3,1.8449238E-1,1.7032046E-4,1.5178435E-2,-1.68348E-2,-2.2056035E-3,1.5014278E-2,2.5963588E-3],"categories":[],"categories_nodes":[],"categories_segments":[],"categories_sizes":[],"default_left":[0,0,0,0,0,0,0,0,0,0,0,0,0],"id":85,"left_children":[1,3,5,7,9,-1,11,-1,-1,-1,-1,-1,-1],"loss_changes":[7.9564285E-1,8.944525E-1,2.2969586E-1,9.757025E-1,1.5469668E0,0E0,3.0676E-1,0E0,0E0,0E0,0E0,0E0,0E0],"parents":[2147483647,0,0,1,1,2,2,3,3,4,4,6,6],"right_children":[2,4,6,8,10,-1,12,-1,-1,-1,-1,-1,-1],"split_conditions":[1.3E1,1.2E1,2.4E1,1.1E1,2.5E1,-9.418428E-3,2.3E1,1.7032046E-4,1.5178435E-2,-1.68348E-2,-2.2056035E-3,1.5014278E-2,2.5963588E-3],"split_indices":[1,3,0,3,0,0,3,0,0,0,0,0,0],"split_type":[0,0,0,0,0,0,0,0,0,0,0,0,0],"sum_hessian":[3.1E2,2.89E2,2.1E1,7.7E1,2.12E2,1E0,2E1,6.5E1,1.2E1,1.9E1,1.93E2,1E1,1E1],"tree_param":{"num_deleted":"0","num_feature":"4","num_nodes":"13","size_leaf_vector":"1"}},{"base_weights":[-1.1288196E-2,-6.705328E-2,2.223187E-2,-2.8052418E-2,-2.544231E-1,-2.1997498E-2,1.1474301E-1,-2.6089808E-3,5.591052E-3,-3.291377E-3,-1.927996E-2,1.6610011E-3,-5.9375074E-3,1.5281684E-2,2.0594888E-4],"categories":[],"categories_nodes":[],"categories_segments":[],"categories_sizes":[],"default_left":[0,0,0,0,0,0,0,0,0,0,0,0,0,0,0],"id":86,"left_children":[1,3,5,7,9,11,13,-1,-1,-1,-1,-1,-1,-1,-1],"loss_changes":[5.529192E-1,8.0400467E-1,7.594904E-1,3.1968698E-1,4.4466233E-1,6.770925E-1,1.2657666E0,0E0,0E0,0E0,0E0,0E0,0E0,0E0,0E0],"parents":[2147483647,0,0,1,1,2,2,3,3,4,4,5,5,6,6],"right_children":[2,4,6,8,10,12,14,-1,-1,-1,-1,-1,-1,-1,-1],"split_conditions":[8E0,1.6E1,2.74E1,2E0,1E0,1.2E1,2.79E1,-2.6089808E-3,5.591052E-3,-3.291377E-3,-1.927996E-2,1.6610011E-3,-5.9375074E-3,1.5281684E-2,2.0594888E-4],"split_indices":[1,3,0,2,2,1,0,0,0,0,0,0,0,0,0],"split_type":[0,0,0,0,0,0,0,0,0,0,0,0,0,0,0],"sum_hessian":[2.94E2,1.1E2,1.84E2,9.2E1,1.8E1,1.25E2,5.9E1,7.9E1,1.3E1,8E0,1E1,8E1,4.5E1,2.1E1,3.8E1],"tree_param":{"num_deleted":"0","num_feature":"4","num_nodes":"15","size_leaf_vector":"1"}},{"base_weights":[1.8467257E-3,-3.3189844E-2,5.7049584E-2,1.960106E-2,-4.1454098E-1,-6.999964E-2,1.426824E-1,3.1814488E-4,5.7745077E-2,-3.237238E-2,6.610164E-3,7.6097758E-3,-8.796151E-3,-1.7297873E-3,1.1339288E-2],"categories":[],"categories_nodes":[],"categories_segments":[],"categories_sizes":[],"default_left":[0,0,0,0,0,0,0,0,0,0,0,0,0,0,0],"id":87,"left_children":[1,3,5,7,9,11,13,-1,-1,-1,-1,-1,-1,-1,-1],"loss_changes":[6.227456E-1,3.9741042E0,1.3699356E0,2.607748E0,3.1417632E0,1.2270935E0,1.1260724E0,0E0,0E0,0E0,0E0,0E0,0E0,0E0,0E0],"parents":[2147483647,0,0,1,1,2,2,3,3,4,4,5,5,6,6],"right_children":[2,4,6,8,10,12,14,-1,-1,-1,-1,-1,-1,-1,-1],"split_conditions":[1.7E1,1.2E1,1E1,1.1E1,2.7E1,1.8E1,2.65E1,3.1814488E-4,5.7745077E-2,-3.237238E-2,6.610164E-3,7.6097758E-3,-8.796151E-3,-1.7297873E-3,1.1339288E-2],"split_indices":[3,1,1,1,0,3,0,0,0,0,0,0,0,0,0],"split_type":[0,0,0,0,0,0,0,0,0,0,0,0,0,0,0],"sum_hessian":[3.2E2,1.96E2,1.24E2,1.73E2,2.3E1,5E1,7.4E1,1.72E2,1E0,1.6E1,7E0,1.6E1,3.4E1,2.4E1,5E1],"tree_param":{"num_deleted":"0","num_feature":"4","num_nodes":"15","size_leaf_vector":"1"}},{"base_weights":[-1.4792246E-2,-3.2833133E-2,8.985272E-2,-4.2124342E-2,2.720738E-1,3.6444098E-1,2.2454118E-2,1.6295977E-3,-3.6957078E-3,1.9731713E-2,2.5427402E-3,-1.7731229E-3,2.4188258E-2,-1.8110987E-3,8.488508E-3],"categories":[],"categories_nodes":[],"categories_segments":[],"categories_sizes":[],"default_left":[0,0,0,0,0,0,0,0,0,0,0,0,0,0,0],"id":88,"left_children":[1,3,5,7,9,11,13,-1,-1,-1,-1,-1,-1,-1,-1],"loss_changes":[5.900834E-1,7.650265E-1,8.431325E-1,6.175902E-1,1.9683254E-1,4.466189E-1,3.3461872E-1,0E0,0E0,0E0,0E0,0E0,0E0,0E0,0E0],"parents":[2147483647,0,0,1,1,2,2,3,3,4,4,5,5,6,6],"right_children":[2,4,6,8,10,12,14,-1,-1,-1,-1,-1,-1,-1,-1],"split_conditions":[3E0,2.8E1,1.5E1,1.2E1,1.3E1,1E1,1.3E1,1.6295977E-3,-3.6957078E-3,1.9731713E-2,2.5427402E-3,-1.7731229E-3,2.4188258E-2,-1.8110987E-3,8.488508E-3],"split_indices":[2,3,3,3,1,3,1,0,0,0,0,0,0,0,0],"split_type":[0,0,0,0,0,0,0,0,0,0,0,0,0,0,0],"sum_hessian":[3.1E2,2.65E2,4.5E1,2.58E2,7E0,8E0,3.7E1,7.7E1,1.81E2,4E0,3E0,2E0,6E0,2.7E1,1E1],"tree_param":{"num_deleted":"0","num_feature":"4","num_nodes":"15","size_leaf_vector":"1"}},{"base_weights":[1.3427872E-2,1.3714101E-3,1.810048E-1,-3.998758E-3,1.9518286E-2,-8.73088E-3,2.2762914E-1,3.9106287E-4,-9.713719E-3,1.3504102E-2,-4.4406815E-3],"categories":[],"categories_nodes":[],"categories_segments":[],"categories_sizes":[],"default_left":[0,0,0,0,0,0,0,0,0,0,0],"id":89,"left_children":[1,3,5,7,-1,-1,9,-1,-1,-1,-1],"loss_changes":[6.321323E-1,6.136277E-1,3.879419E-1,6.53747E-1,0E0,0E0,2.792312E-1,0E0,0E0,0E0,0E0],"parents":[2147483647,0,0,1,1,2,2,3,3,6,6],"right_children":[2,4,6,8,-1,-1,10,-1,-1,-1,-1],"split_conditions":[1.3E1,2.9E1,2.51E1,2.3E1,1.9518286E-2,-8.73088E-3,2.86E1,3.9106287E-4,-9.713719E-3,1.3504102E-2,-4.4406815E-3],"split_indices":[1,3,0,3,0,0,0,0,0,0,0],"split_type":[0,0,0,0,0,0,0,0,0,0,0],"sum_hessian":[3.12E2,2.92E2,2E1,2.89E2,3E0,2E0,1.8E1,2.73E2,1.6E1,1.6E1,2E0],"tree_param":{"num_deleted":"0","num_feature":"4","num_nodes":"11","size_leaf_vector":"1"}},{"base_weights":[-2.0928543E-2,-3.214128E-2,1.158979E-1,-1.580582E-2,-1.372882E-1,2.3082313E-1,-4.090673E-2,-1.3396048E-3,4.5432393E-2,-2.2784796E-2,1.1093089E-2,-8.439851E-3,1.5574644E-2,-8.454971E-3,2.825165E-3],"categories":[],"categories_nodes":[],"categories_segments":[],"categories_sizes":[],"default_left":[0,0,0,0,0,0,0,0,0,0,0,0,0,0,0],"id":90,"left_children":[1,3,5,7,9,11,13,-1,-1,-1,-1,-1,-1,-1,-1],"loss_changes":[4.8546353E-1,4.976585E-1,4.4194168E-1,2.5938892E0,4.56099E0,5.039008E-1,1.4691447E-1,0E0,0E0,0E0,0E0,0E0,0E0,0E0,0E0],"parents":[2147483647,0,0,1,1,2,2,3,3,4,4,5,5,6,6],"right_children":[2,4,6,8,10,12,14,-1,-1,-1,-1,-1,-1,-1,-1],"split_conditions":[1.3E1,1.2E1,2.5E1,1.1E1,1.7E1,2.51E1,2.8E1,-1.3396048E-3,4.5432393E-2,-2.2784796E-2,1.1093089E-2,-8.439851E-3,1.5574644E-2,-8.454971E-3,2.825165E-3],"split_indices":[1,1,3,1,3,0,3,0,0,0,0,0,0,0,0],"split_type":[0,0,0,0,0,0,0,0,0,0,0,0,0,0,0],"sum_hessian":[3.13E2,2.9E2,2.3E1,2.52E2,3.8E1,1.3E1,1E1,2.5E2,2E0,2E1,1.8E1,2E0,1.1E1,4E0,6E0],"tree_param":{"num_deleted":"0","num_feature":"4","num_nodes":"15","size_leaf_vector":"1"}},{"base_weights":[5.784807E-3,2.9958248E-2,-8.902236E-2,1.9092586E-2,8.783595E-1,-4.3016878E-1,7.554789E-2,2.8396242E-3,-4.5305956E-3,5.524825E-2,1.0628712E-2,-3.4202214E-2,6.9517507E-3,-3.5233174E-3,6.815123E-3],"categories":[],"categories_nodes":[],"categories_segments":[],"categories_sizes":[],"default_left":[0,0,0,0,0,0,0,0,0,0,0,0,0,0,0],"id":91,"left_children":[1,3,5,7,9,11,13,-1,-1,-1,-1,-1,-1,-1,-1],"loss_changes":[6.8791986E-1,2.1864374E0,3.4571939E0,9.85342E-1,2.177248E-1,2.9852448E0,3.8218814E-1,0E0,0E0,0E0,0E0,0E0,0E0,0E0,0E0],"parents":[2147483647,0,0,1,1,2,2,3,3,4,4,5,5,6,6],"right_children":[2,4,6,8,10,12,14,-1,-1,-1,-1,-1,-1,-1,-1],"split_conditions":[1.2E1,1.1E1,1.5E1,1.8E1,2.71E1,2.69E1,1.9E1,2.8396242E-3,-4.5305956E-3,5.524825E-2,1.0628712E-2,-3.4202214E-2,6.9517507E-3,-3.5233174E-3,6.815123E-3],"split_indices":[1,1,3,3,0,0,3,0,0,0,0,0,0,0,0],"split_type":[0,0,0,0,0,0,0,0,0,0,0,0,0,0,0],"sum_hessian":[2.98E2,2.38E2,